2838 100
</s> 0.004003 0.004419 -0.003830 -0.003278 0.001367 0.003021 0.000941 0.000211 -0.003604 0.002218 -0.004356 0.001250 -0.000751 -0.000957 -0.003316 -0.001882 0.002579 0.003025 0.002969 0.001597 0.001545 -0.003803 -0.004096 0.004970 0.003801 0.003090 -0.000604 0.004016 -0.000495 0.000735 -0.000149 -0.002983 0.001312 -0.001337 -0.003825 0.004754 0.004379 -0.001095 -0.000226 0.000509 -0.003638 -0.004007 0.004555 0.000063 -0.002582 -0.003042 -0.003076 0.001697 0.000201 0.001331 -0.004214 -0.003808 -0.000130 0.001144 0.002550 -0.003170 0.004080 0.000927 0.001120 -0.000608 0.002986 -0.002288 -0.002097 0.002158 -0.000753 0.001031 0.001805 -0.004089 -0.001983 0.002914 0.004232 0.003932 -0.003047 -0.002108 -0.000909 0.002001 -0.003788 0.002998 0.002788 -0.001599 -0.001552 -0.002238 0.004229 0.003912 -0.001180 0.004215 0.004820 0.001815 0.004983 -0.003111 -0.001532 -0.002107 -0.002907 0.002815 0.001579 0.000425 -0.002194 0.001524 0.003059 0.000194 
， 0.489188 0.153095 -0.519065 0.047585 0.550705 -0.536666 0.012822 0.522538 0.315748 0.167728 -0.477784 -0.079964 -0.146518 -0.176741 0.061744 -0.064976 -0.036577 -0.073161 0.195781 0.281807 0.016562 -0.206419 0.054729 0.049752 -0.044849 0.227636 0.161945 -0.111498 -0.158988 -0.071702 -0.183288 0.207943 -0.318098 -0.307082 -0.783910 0.224390 -0.088907 -0.449854 -0.237134 0.185467 -0.333951 -0.109720 -0.045622 0.436944 -0.091590 0.188938 -0.065845 0.535347 -0.204338 -0.496444 0.502899 0.512867 -0.140125 0.245707 0.300514 0.224027 -0.216775 -0.215217 -0.360451 -0.126376 0.419405 0.442007 -0.440866 -0.079466 -0.001219 0.125242 0.601665 -0.348708 -0.684034 0.369503 -0.108264 -0.286889 0.019973 -0.323844 0.146863 -0.201505 -0.546399 -0.268947 0.327320 0.259290 -0.134654 0.303259 0.631535 -0.041316 -0.116682 -0.235851 -0.007439 0.316022 0.769966 0.074922 0.387348 0.436707 -0.224644 -0.240426 -0.186036 -0.315715 -0.104001 0.418468 -0.114072 -0.290611 
的 0.329345 -0.040081 -0.659979 0.184701 0.553113 -0.653097 0.036812 0.368953 0.415879 0.114076 -0.648344 0.066232 -0.126448 -0.162251 -0.109965 0.011847 -0.047522 0.144654 0.333184 0.328488 -0.006621 -0.593202 -0.030643 0.197532 -0.222489 0.618409 0.090781 -0.010950 -0.278226 0.035443 -0.080701 0.352530 -0.164888 -0.367477 -0.630136 0.020127 -0.083411 -0.471244 -0.032778 0.294542 -0.450297 -0.005853 0.110883 0.348445 -0.020001 -0.148033 0.179206 0.536095 -0.165284 -0.473169 0.566289 0.586721 -0.300302 0.093374 0.510010 0.215837 -0.270080 -0.099745 -0.406835 -0.358315 0.430453 0.123354 -0.424975 0.125626 0.099413 -0.065519 0.764181 -0.519945 -0.675234 0.283866 -0.214367 -0.348986 0.081661 -0.418420 0.212855 -0.289618 -0.575746 -0.164185 0.381993 0.541294 0.226104 0.296347 0.626026 -0.172433 0.154076 0.148830 0.169943 0.169108 0.674294 0.168008 0.479402 0.126789 -0.261219 -0.359822 0.166238 -0.629296 -0.225835 0.406404 0.055074 -0.010644 
。 0.615477 0.118527 -0.394262 0.072051 0.452186 -0.473900 -0.078783 0.622679 0.044803 0.242991 -0.423467 -0.008057 -0.251710 -0.137190 0.081021 -0.093059 -0.012146 0.004375 0.147975 0.175334 -0.043110 -0.064677 0.140856 -0.206147 0.095276 0.135585 0.148551 0.008609 -0.098897 0.057763 -0.164190 0.088345 -0.377065 -0.220616 -0.397460 0.214913 -0.071797 -0.219532 -0.202204 0.050910 -0.175435 0.017638 -0.231888 0.275732 -0.118513 -0.079223 -0.196943 0.439463 -0.117608 -0.660484 0.133396 0.419310 -0.097559 0.227200 0.084551 0.134195 -0.151723 -0.287400 -0.159280 -0.211554 0.424229 0.523081 -0.358874 -0.246934 -0.130519 0.305373 0.510291 -0.483693 -0.621097 0.213554 0.051351 -0.078465 -0.033040 -0.294488 0.072368 -0.237542 -0.401231 0.052877 0.111358 0.123957 -0.024212 0.234057 0.244442 -0.031155 -0.167850 -0.263051 0.036936 0.318477 0.844021 0.348086 0.323276 0.564355 -0.158051 -0.372621 -0.114946 -0.080441 0.098108 0.551008 -0.149935 -0.536057 
、 -0.804527 -0.543482 -0.659289 0.148741 0.581370 -0.301494 0.432065 2.387032 0.173572 -0.199714 0.257083 0.666826 -0.234997 1.243027 -0.195099 1.123916 0.440828 0.996873 1.008842 0.279305 0.722789 -0.874661 0.002209 0.380189 0.077291 1.576726 -0.485519 -0.367310 0.278397 -0.962109 -0.493789 -0.109860 -0.453419 -0.391507 -0.529327 0.256609 -0.285044 -1.337398 1.378750 0.264967 -0.217393 0.499206 -0.726299 0.155762 -0.088934 -0.423913 0.372337 0.585463 0.281762 0.364234 0.143505 -0.116409 -0.793684 0.161573 0.246760 -0.865905 0.945453 0.352689 0.212702 -0.151494 0.214415 -0.478782 0.602134 0.369396 -0.587772 -0.693605 -0.629605 0.256695 0.844082 -0.168792 -0.167517 0.002380 0.041544 0.494301 0.333029 0.992456 0.143164 -0.491134 0.367297 1.083706 -0.022849 -0.191000 0.535632 0.684341 0.217945 0.439081 0.376919 0.757649 0.227565 -0.389337 -1.197355 -1.338407 -0.053467 0.408007 -0.121691 -0.754549 -0.878325 -0.487796 -0.299414 0.282102 
在 0.657171 0.185295 -0.437945 -0.066526 0.382738 -0.395392 -0.077480 0.665437 0.317247 0.036308 -0.528578 0.205138 -0.381992 -0.109055 0.241493 0.074031 0.046304 -0.030917 0.435623 0.417584 0.041508 -0.101176 0.122577 -0.058733 -0.092264 0.182959 0.273858 -0.061044 -0.397994 -0.265258 -0.238303 0.119292 -0.395400 -0.195534 -0.315275 0.217340 -0.273568 -0.328113 -0.217778 0.037417 -0.010892 -0.409469 -0.438291 0.247534 0.053384 0.081137 -0.199400 0.598767 -0.177238 -0.567327 0.517840 0.420640 -0.078397 0.218532 0.138671 0.285553 0.086742 -0.119561 -0.308611 0.118656 0.657342 0.509753 -0.259745 -0.033690 0.066442 0.306388 0.539786 -0.204044 -0.568961 0.608764 -0.116107 -0.102414 -0.006887 -0.143703 0.055481 -0.187349 -0.429494 0.015050 0.277322 0.080502 0.129628 0.235683 0.442117 -0.139771 -0.051357 -0.242854 -0.067766 0.301060 0.829719 0.172208 0.520545 0.435058 -0.110247 -0.490792 -0.211558 -0.150377 0.124444 0.408166 -0.137789 -0.356329 
了 1.003012 0.452791 -0.260789 0.113485 0.354589 -0.699984 -0.301125 0.259308 0.102139 0.304110 -0.571189 -0.060648 -0.150576 -0.488047 0.005652 -0.354963 0.048719 -0.237220 -0.016002 0.334797 0.047985 0.096143 0.254062 -0.207312 0.303208 0.043331 0.487378 -0.082796 -0.279027 0.430034 -0.158665 0.067560 -0.323372 -0.238606 -0.620275 0.111942 -0.161267 -0.056624 -0.402584 0.022668 -0.253552 -0.236238 0.120954 0.277850 -0.070648 0.138233 -0.272707 0.326400 -0.230818 -0.740762 0.137195 0.576019 -0.027813 0.149689 0.091196 0.397092 -0.576358 -0.396550 -0.154720 -0.011842 0.413901 0.762689 -0.683828 -0.290584 -0.210868 0.419235 0.831221 -0.572474 -1.145122 0.562946 0.068684 -0.099248 -0.083725 -0.466839 0.089456 -0.388010 -0.606389 0.127297 0.239230 0.104594 -0.059382 0.344644 0.475768 -0.058620 -0.093345 -0.506639 0.004268 0.471761 1.081258 0.449140 0.860127 1.128551 -0.401422 -0.377106 -0.297775 -0.152732 0.194330 0.894705 0.007965 -0.650494 
” 0.597718 0.289961 -0.258777 0.176624 0.509933 -0.490331 -0.261681 0.745953 0.234179 0.551168 0.115751 -0.182381 0.099365 -0.089741 -0.110469 -0.245979 0.132704 -0.051904 -0.329299 0.175977 -0.021084 -0.133619 0.101680 0.012774 0.166832 0.104662 0.056407 -0.368238 0.381930 0.440428 -0.086121 0.109260 -0.478027 -0.064690 -0.581314 0.249654 0.221805 0.018704 0.035981 0.167574 -0.441199 0.427478 0.276851 0.363850 -0.079166 0.060788 -0.231863 0.123286 -0.239378 -0.742771 -0.251514 0.468927 0.028511 0.244092 0.095693 -0.047887 -0.370614 -0.226784 -0.027382 -0.471531 0.181278 0.575669 -0.370883 -0.306806 -0.061503 -0.207833 0.588057 -0.556324 -0.910369 -0.064623 0.203231 -0.217580 0.154525 -0.542303 -0.117422 0.013894 -0.529176 0.047758 0.109316 0.362113 -0.571416 0.181269 0.437312 0.503310 -0.429145 -0.522917 0.046533 0.598586 0.575798 0.274435 0.489842 0.552032 -0.303560 0.266251 -0.075102 -0.277073 0.059002 0.570632 -0.153138 -0.618376 
“ 0.706534 0.335174 -0.288784 0.149357 0.440982 -0.629973 -0.297627 0.725664 0.184467 0.498883 -0.063368 -0.129063 0.048580 -0.182799 -0.093246 -0.297863 0.196347 -0.089972 -0.215222 0.316311 0.004369 -0.146271 0.042931 -0.027461 0.173182 0.204621 0.143356 -0.344299 0.293934 0.488987 -0.087843 0.144198 -0.433200 -0.170136 -0.517235 0.197699 0.062035 0.019510 -0.090305 0.096380 -0.367266 0.308386 0.276360 0.281521 0.003142 0.002192 -0.292001 0.147717 -0.279024 -0.625773 -0.251231 0.495042 0.001318 0.211010 0.084453 0.022389 -0.448801 -0.268272 -0.022965 -0.344952 0.131919 0.526264 -0.474245 -0.253908 -0.106309 -0.006477 0.686419 -0.528096 -0.912428 0.056073 0.154623 -0.186050 0.116566 -0.556991 -0.063072 -0.011230 -0.521531 0.148656 0.153765 0.290121 -0.397971 0.194049 0.376197 0.369378 -0.365761 -0.404505 0.091783 0.589000 0.574247 0.355096 0.525558 0.652444 -0.365056 0.205129 -0.066271 -0.295252 0.112639 0.671924 -0.081436 -0.588750 
是 0.531796 0.233627 -0.655169 0.276926 0.458915 -0.827701 -0.188962 0.086287 0.316416 0.346460 -0.595441 0.025602 -0.174388 -0.395237 -0.194938 -0.276625 0.006074 -0.164793 -0.055333 0.490501 -0.250407 -0.486842 -0.119157 0.198006 -0.131966 0.526331 0.368265 -0.075859 -0.126149 0.284029 -0.014819 0.375116 -0.188133 -0.335272 -0.714870 -0.066285 -0.030923 -0.204835 -0.182423 0.178244 -0.450371 0.046777 0.381897 0.309426 0.057494 -0.034469 0.020547 0.309327 -0.264438 -0.517784 0.318197 0.751692 -0.048138 0.112076 0.316367 0.331779 -0.604149 -0.173071 -0.405759 -0.351484 0.295340 0.327515 -0.678634 0.068951 0.009553 -0.156004 1.009461 -0.606683 -1.144549 0.397596 -0.135079 -0.384669 0.024808 -0.751432 0.187178 -0.235325 -0.603265 0.019396 0.371832 0.438421 0.206421 0.311653 0.698345 -0.209976 -0.112436 0.008926 0.151625 0.464310 0.665400 0.306170 0.916468 0.450365 -0.439147 -0.226330 0.077290 -0.645964 -0.117353 0.602242 -0.073471 -0.338474 
和 0.087606 -0.166006 -0.699759 0.114079 0.473642 -0.202088 0.237267 0.969648 0.375646 -0.042489 -0.377434 0.211169 -0.234172 0.404473 0.016925 0.408589 0.061554 0.338165 0.660259 0.167710 0.108492 -0.634072 0.027335 -0.020212 -0.267305 0.476466 -0.259783 0.033522 -0.028251 -0.443249 -0.237544 0.170001 -0.347298 -0.282916 -0.283453 0.223848 -0.034442 -0.706366 0.366469 0.280883 -0.218890 0.020187 -0.591219 0.259090 -0.009693 -0.157432 0.023560 0.734523 0.066606 -0.370141 0.471111 0.181809 -0.153961 0.346233 0.256294 -0.138218 0.410343 0.029336 -0.246331 -0.160729 0.587257 0.024643 -0.026665 0.153416 0.031278 -0.016111 0.121972 -0.278819 -0.119491 0.175786 -0.190419 -0.291904 0.090199 -0.120274 0.190416 0.085428 -0.336975 -0.251144 0.258907 0.262595 0.204970 0.111991 0.529371 -0.138925 -0.072283 0.082034 0.146358 0.273584 0.717329 0.044794 -0.225920 -0.329636 0.048787 -0.330908 -0.128809 -0.348978 -0.266477 -0.020143 -0.260433 -0.030289 
也 0.533447 0.170740 -0.586100 0.105880 0.475747 -0.600490 -0.103075 0.141876 0.242518 0.181986 -0.595384 0.088670 -0.327350 -0.297743 -0.092382 -0.238792 -0.111364 -0.109197 0.177573 0.377000 -0.060155 -0.353261 0.041546 0.128598 -0.189283 0.436949 0.275142 -0.028734 -0.284652 0.038051 -0.023850 0.310895 -0.233295 -0.203152 -0.624856 0.054094 -0.123658 -0.311597 -0.204047 0.098819 -0.248065 -0.191638 0.055119 0.253911 0.095237 -0.148060 -0.044501 0.514973 -0.265306 -0.626121 0.475468 0.687845 -0.067873 0.184511 0.238276 0.289852 -0.336710 -0.178854 -0.392420 -0.194003 0.391922 0.380799 -0.548216 -0.033777 -0.026667 0.002059 0.791487 -0.469159 -0.887414 0.449729 -0.104067 -0.281269 -0.005517 -0.525329 0.149421 -0.241585 -0.569561 0.037913 0.279487 0.355630 0.180159 0.331010 0.555381 -0.174411 -0.092054 -0.014595 0.131759 0.404314 0.740206 0.198834 0.808720 0.376738 -0.238901 -0.411179 0.025193 -0.508871 -0.030501 0.549779 -0.092321 -0.360365 
有 0.557043 0.212018 -0.357312 0.145180 0.315048 -0.578545 -0.128591 0.211584 0.053721 0.254317 -0.494055 -0.070589 -0.148479 -0.314270 -0.039787 -0.246204 -0.003377 -0.088829 -0.021415 0.265423 -0.151760 -0.211535 -0.003895 -0.124580 0.078561 0.253255 0.174129 -0.018159 -0.134788 0.242837 -0.114803 0.224160 -0.273797 -0.359257 -0.489452 0.136212 -0.110385 -0.195064 -0.278200 0.078752 -0.173768 0.044681 0.024333 0.232373 -0.026676 -0.173787 -0.131923 0.375856 -0.234234 -0.609834 0.210335 0.593578 -0.029665 0.255168 0.113669 0.164684 -0.429777 -0.368428 -0.249889 -0.240200 0.389568 0.495952 -0.632121 -0.118768 -0.127517 0.277837 0.721439 -0.626968 -0.937527 0.196868 0.085531 -0.124472 -0.055440 -0.493094 0.145308 -0.294219 -0.521382 0.172472 0.163619 0.155383 0.113934 0.288926 0.336099 -0.144896 -0.244872 -0.216100 0.164795 0.465626 0.822196 0.525916 0.534544 0.718981 -0.284978 -0.381309 -0.075549 -0.262158 0.106186 0.740509 -0.095113 -0.609913 
\ 0.828695 -0.352377 -0.259353 -0.669915 0.500067 0.159494 -0.314074 0.269677 -0.713527 -0.267137 -0.199508 0.628633 -2.005923 0.346555 0.639746 0.107650 -0.590188 0.113710 0.456892 0.175343 0.015549 0.847650 0.769833 -0.595350 -0.758161 0.037770 0.337704 0.306958 -0.964192 -1.225927 -0.373497 0.146933 -1.565955 0.805296 0.640156 0.176464 -0.222076 -0.468206 -0.579690 -0.878220 1.290326 -0.950309 -1.830247 -0.304005 0.191224 -0.985889 -1.450229 1.347551 0.279408 -1.785307 -0.061056 0.682477 -0.173115 0.555866 -0.607103 -0.248705 1.284468 -0.185388 -0.302095 0.322566 1.096181 1.093535 0.463006 -0.699445 -0.773225 0.732019 -0.395053 0.142044 0.442550 0.378502 0.369167 0.598230 -0.035063 0.163776 0.028490 0.304310 0.040547 0.888909 -0.363815 0.261695 0.388229 -0.150098 -0.316709 0.294007 -0.266022 0.138279 0.112514 0.827321 1.262974 0.229283 0.663341 0.229784 0.993639 -1.078602 0.305300 1.126728 1.011364 0.526856 -0.561772 -1.466236 
n 0.890421 -0.303046 -0.301416 -0.686638 0.516184 0.159802 -0.414301 0.135316 -0.680537 -0.202995 -0.247107 0.620410 -2.080199 0.236736 0.643050 0.030247 -0.634131 0.073731 0.394350 0.212078 -0.024595 0.845565 0.722500 -0.556008 -0.809555 -0.002789 0.383098 0.273098 -0.989127 -1.159319 -0.295814 0.173705 -1.580645 0.871146 0.666872 0.124790 -0.167646 -0.331490 -0.658993 -0.892898 1.294714 -0.997312 -1.739713 -0.334940 0.208582 -0.918005 -1.460809 1.285131 0.250764 -1.859530 -0.092158 0.720204 -0.117650 0.535232 -0.635530 -0.158539 1.232086 -0.166089 -0.307859 0.347800 1.058962 1.075944 0.501921 -0.675034 -0.724913 0.693087 -0.348733 0.133022 0.378307 0.426235 0.385287 0.558063 -0.072975 0.058618 0.000016 0.262349 -0.018737 0.937515 -0.362526 0.210245 0.420244 -0.125763 -0.296553 0.257641 -0.218082 0.150699 0.062264 0.716923 1.179452 0.219487 0.877787 0.259168 0.975853 -1.069552 0.390807 1.116216 1.066440 0.544208 -0.531063 -1.429963 
都 0.839204 0.411590 -0.298713 0.312466 0.313887 -0.903345 -0.415007 0.203273 0.308616 0.479777 -0.529647 0.109008 -0.060130 -0.322816 -0.304404 -0.314256 0.132904 -0.436190 -0.203813 0.478248 0.143540 -0.217177 0.162285 0.010060 0.186255 0.305434 0.731593 -0.240979 -0.230104 0.406949 -0.250309 0.208719 -0.150076 -0.392099 -0.743054 0.009099 0.030909 -0.116097 -0.288382 0.279898 -0.418817 -0.284953 0.409495 0.432249 -0.000203 0.158779 -0.204088 0.264300 -0.349947 -0.572940 0.118727 0.804063 -0.059996 -0.084596 0.181550 0.507215 -0.837618 -0.178588 -0.184093 -0.089141 0.320722 0.654073 -0.817006 -0.226947 -0.284432 -0.066713 0.827140 -0.556719 -1.339349 0.675365 0.099156 -0.158061 -0.013949 -0.704958 0.201374 -0.247210 -0.626713 0.109161 0.485104 0.255386 -0.011003 0.446781 0.535938 -0.013693 0.139280 -0.490965 0.101739 0.418111 0.812412 0.409137 1.037166 0.977769 -0.559955 -0.275534 -0.167633 -0.432943 -0.106022 0.805877 -0.011622 -0.506075 
为 0.000730 -0.255819 -0.183535 -0.044400 0.166623 -0.268680 0.196618 1.102876 -0.220124 0.006708 -0.164955 0.085635 0.105787 0.246310 0.162186 0.047972 0.096096 0.386413 0.595596 -0.159868 0.352709 0.017135 -0.045860 -0.073510 0.407284 0.686458 -0.061960 0.102643 -0.165603 -0.363567 -0.208537 -0.014442 0.066494 -0.644709 -0.135199 0.296717 -0.204513 -0.335596 0.069235 -0.098232 0.088372 0.422541 -0.718374 0.025175 -0.000966 -0.820818 -0.015008 0.706648 -0.101580 -0.361756 0.007805 0.254489 -0.303934 -0.162578 0.005756 -0.142010 -0.143499 -0.427232 0.136020 -0.387946 0.144056 0.321535 -0.261165 -0.199820 -0.185074 0.249196 -0.112082 -0.203771 -0.211621 -0.390105 0.001477 0.224835 -0.068568 0.093817 -0.127155 -0.034782 0.218963 0.237135 -0.005559 0.545470 0.222948 -0.125783 -0.218510 0.143094 -0.006474 -0.197125 0.337239 0.594403 0.237313 0.363970 -0.397907 -0.061914 0.086522 -0.272348 -0.072951 0.011537 -0.059259 0.473977 -0.186174 -0.363448 
月 0.459309 -0.115228 0.129635 -0.673402 -0.137641 0.550266 0.429163 2.290803 -0.070144 -0.307297 0.341937 0.196091 0.342013 0.839264 1.087910 0.539367 0.201877 0.613630 1.382442 -0.320480 0.624962 0.812839 0.345633 -0.574788 0.588713 -0.088787 -0.107421 -0.210436 -0.108299 -1.328470 -0.923051 -0.151297 -0.585789 -0.361945 0.291540 0.900460 -0.690350 -0.583783 0.055033 -0.620271 0.871983 -0.106290 -2.566068 0.235703 0.033611 -0.251458 -0.966802 1.546736 0.294267 -0.501800 0.389904 -0.281716 -0.067565 0.500138 -0.576601 -0.599871 1.039587 -0.283831 -0.119221 0.371526 0.819466 1.110773 0.118041 -0.338192 0.037241 0.905807 -0.744091 0.605377 0.620290 -0.066059 -0.165365 0.701087 0.081577 1.140268 -0.261942 0.484399 0.623993 -0.177266 -0.199938 -0.253071 -0.516115 -0.481179 -0.449544 0.155404 -0.616430 -0.999895 -0.081954 0.720889 0.690706 -0.142973 -1.175604 0.203975 0.480887 -0.106319 -1.070727 1.164124 0.627007 -0.016691 -0.579792 -0.685434 
： 0.598483 0.020742 -0.053875 -0.067870 -0.045301 -0.465754 -0.388196 0.966297 -0.479782 0.168901 -0.064719 0.274176 0.081291 0.067013 0.136532 -0.436088 0.253713 0.337135 0.344229 0.179051 0.287337 0.065375 -0.072329 -0.262297 0.515864 0.692698 0.163856 -0.129666 0.081030 0.222612 -0.222572 0.130672 -0.108985 -0.466717 0.218670 0.196937 -0.472496 0.063278 -0.129195 -0.507847 0.255980 0.546116 -0.510095 -0.325140 0.238282 -0.973958 -0.574767 0.426011 -0.234960 -0.468167 -0.781920 0.307212 -0.068230 -0.056122 -0.416470 -0.333767 -0.412692 -0.441930 0.367362 -0.353407 -0.224830 0.516299 -0.346817 -0.217804 -0.446018 0.577867 0.066071 -0.132907 -0.439904 -0.416177 0.183125 0.375892 -0.116172 -0.140479 -0.140711 0.267265 0.179642 0.883566 -0.218048 0.286597 0.307977 -0.303475 -0.528992 0.309216 -0.373908 -0.238191 0.451560 0.981286 0.182674 0.659363 0.156218 0.534288 -0.161646 0.161950 -0.046619 0.257450 0.503640 0.663673 -0.050149 -0.784222 
将 0.178074 -0.094019 -0.364059 -0.051339 0.339747 -0.028556 0.233073 0.902879 0.270467 -0.017579 -0.146920 0.056882 -0.176707 0.324845 0.089859 0.324805 0.006174 0.279318 0.435965 -0.029553 0.124970 -0.303074 0.182246 -0.173837 -0.078907 0.120052 -0.200354 -0.059510 0.032363 -0.366325 -0.345265 0.040248 -0.403422 -0.243141 -0.330446 0.431876 -0.011403 -0.584447 0.180207 0.137391 -0.146963 0.001931 -0.730633 0.325559 -0.052696 -0.076434 -0.215751 0.747491 0.164484 -0.551108 0.347112 0.129258 -0.060868 0.404653 0.153154 -0.242056 0.344994 -0.031134 -0.251664 -0.137368 0.576452 0.270449 -0.136618 -0.099050 0.069682 0.100082 0.000638 -0.222356 -0.136014 0.062889 -0.088358 -0.085382 0.125203 0.014848 0.082250 0.084433 -0.195031 -0.236313 0.152914 0.196682 -0.125675 0.087617 0.314572 0.055309 -0.217117 -0.235444 0.154739 0.393253 0.829576 0.092195 -0.255840 -0.020136 0.088695 -0.362876 -0.337553 -0.060148 -0.079309 0.175498 -0.365146 -0.292477 
年 0.195734 -0.355584 -0.327874 -0.396880 0.199292 0.168449 0.282927 1.663018 0.141057 -0.274144 0.068729 0.312559 -0.151881 0.746515 0.732779 0.404039 0.075127 0.592822 1.095580 0.025339 0.245389 0.254084 0.039726 -0.325315 0.027745 0.223313 -0.284751 -0.004600 -0.164670 -1.116400 -0.554547 0.106118 -0.512473 -0.211256 0.378617 0.574804 -0.591958 -0.630225 0.041064 -0.433310 0.732353 -0.195499 -1.740577 -0.060065 0.048834 -0.372632 -0.475954 1.364493 0.112361 -0.294738 0.525834 0.016085 -0.077442 0.450423 -0.450055 -0.354226 0.950775 -0.173193 -0.256610 0.059438 0.755515 0.563381 0.267745 -0.076878 -0.009972 0.471812 -0.231612 0.275978 0.498563 -0.084982 -0.151597 0.327039 0.006236 0.590294 -0.169949 0.380046 0.367699 -0.069896 -0.155979 -0.017021 -0.002351 -0.365501 -0.035512 0.024394 -0.334447 -0.282237 0.091674 0.639699 0.541063 -0.046811 -0.674269 0.028190 0.366524 -0.297235 -0.443737 0.627690 0.376756 -0.171379 -0.431626 -0.521456 
上 0.641883 0.161082 -0.440778 -0.058799 0.386499 -0.587004 -0.170439 0.554941 0.196606 0.152080 -0.494757 0.147648 -0.259290 -0.210517 0.063108 -0.164660 -0.023865 -0.067951 0.320681 0.373968 0.105256 -0.041594 0.151452 0.091418 -0.035159 0.379171 0.372917 -0.103681 -0.307543 -0.063798 -0.117540 0.213150 -0.265989 -0.239900 -0.546217 0.113870 -0.226194 -0.266504 -0.318876 -0.019493 -0.159651 -0.299538 -0.104586 0.262383 0.103916 -0.041559 -0.200410 0.498083 -0.229350 -0.475855 0.328240 0.545374 -0.202388 0.066743 0.196922 0.236541 -0.300750 -0.168993 -0.250018 -0.022663 0.267156 0.520499 -0.395400 -0.199917 -0.070523 0.165611 0.485064 -0.235267 -0.697404 0.457728 -0.164595 -0.092990 0.073718 -0.291010 0.025713 -0.091368 -0.345816 0.045100 0.300876 0.389176 0.004269 0.237184 0.370946 -0.018805 -0.012643 -0.184446 0.034019 0.446869 0.676496 0.103559 0.636060 0.437959 -0.139724 -0.254178 -0.067226 -0.262179 0.054316 0.514563 -0.067612 -0.335204 
就 0.951885 0.487649 -0.481863 0.269174 0.404841 -0.911769 -0.369136 0.103620 0.156747 0.489655 -0.660736 -0.068092 -0.254480 -0.604780 -0.217943 -0.457401 -0.024685 -0.312058 -0.246468 0.470939 -0.158955 -0.125127 0.035038 -0.035469 0.161439 0.171003 0.557078 -0.131401 -0.196816 0.605758 -0.054052 0.187448 -0.266861 -0.297936 -0.730920 0.057383 -0.066853 -0.042148 -0.416647 0.079964 -0.440063 -0.041656 0.471548 0.308455 0.022716 0.032794 -0.096777 0.199351 -0.308953 -0.826922 0.167817 0.745413 0.073495 0.183246 0.141947 0.482021 -0.819855 -0.380317 -0.239529 -0.219630 0.338911 0.696072 -0.858805 -0.213700 -0.125643 0.264365 1.058491 -0.731512 -1.380080 0.529387 0.093430 -0.231511 -0.105860 -0.801727 0.153655 -0.386359 -0.742032 0.212812 0.195742 0.168821 0.074228 0.381909 0.581014 -0.072734 -0.282298 -0.377993 0.093415 0.528765 0.976101 0.570481 1.050321 1.048438 -0.529876 -0.330165 -0.137577 -0.416377 0.133896 0.953603 -0.038370 -0.679477 
对 0.155118 -0.022514 -0.465321 0.167868 0.408440 -0.320630 0.048482 0.978008 0.273408 0.389614 -0.062431 -0.122618 -0.039755 0.215614 -0.187593 0.269324 0.107158 0.132595 0.010939 0.034072 0.106214 -0.433361 0.106127 -0.058782 0.010034 0.222988 -0.049033 -0.231590 0.188705 0.041062 -0.254459 -0.007983 -0.395868 -0.186993 -0.566361 0.338660 0.355526 -0.406753 0.367519 0.325162 -0.545592 0.324021 -0.068486 0.544103 -0.208789 0.140175 -0.096646 0.373095 0.163007 -0.730440 -0.036438 0.208088 -0.005607 0.204325 0.296516 -0.082343 0.028908 0.021618 -0.080993 -0.359479 0.360401 0.191427 -0.226677 -0.071482 0.090520 -0.233652 0.229606 -0.431151 -0.473875 -0.009040 0.070276 -0.285206 0.069016 -0.332161 0.102226 0.154128 -0.441175 -0.331529 0.184928 0.393963 -0.263644 0.117454 0.511822 0.355428 -0.190175 -0.373648 0.070698 0.280270 0.712091 0.149491 -0.003318 -0.035035 -0.130740 -0.042010 -0.187267 -0.310892 -0.292650 0.236325 -0.244566 -0.232355 
他 1.202864 0.716477 -0.364767 0.260319 0.508151 -0.957897 -0.484195 0.283642 0.205962 0.632037 -0.570986 -0.137842 -0.216647 -0.676251 -0.164862 -0.551600 -0.059229 -0.533389 -0.429835 0.553719 -0.125797 -0.016667 0.267986 -0.147441 0.237696 -0.135305 0.720942 -0.331277 -0.108363 0.729414 -0.147453 0.125362 -0.472867 -0.203498 -0.987095 0.167735 0.087877 -0.034346 -0.440359 0.147630 -0.575619 -0.157191 0.637163 0.511726 -0.117201 0.538486 -0.336975 0.004705 -0.317265 -0.951240 -0.005526 0.663704 0.091002 0.258193 0.180309 0.545666 -0.846841 -0.296854 -0.230101 -0.112349 0.420742 0.987770 -0.890906 -0.384838 -0.153048 0.214713 1.050702 -0.749185 -1.595011 0.784234 0.105136 -0.309681 -0.021679 -0.889175 0.146912 -0.351750 -0.908660 0.052407 0.332738 0.032830 -0.284868 0.516756 0.784313 0.063559 -0.303991 -0.770979 -0.104337 0.486670 1.241217 0.405220 1.286776 1.374005 -0.635730 -0.200768 -0.398228 -0.377403 0.169002 1.045507 -0.109876 -0.765432 
与 0.215847 -0.120635 -0.567166 0.015357 0.295046 -0.370419 0.009161 0.910055 0.224991 0.007099 -0.286175 0.223226 -0.218658 0.286259 0.035707 0.183232 0.043932 0.302908 0.531834 0.233346 0.228272 -0.354198 -0.026359 0.136548 -0.080585 0.623808 0.046962 -0.110641 -0.160246 -0.356540 -0.241333 0.154332 -0.219848 -0.241393 -0.282228 0.225787 -0.172640 -0.514047 0.170542 -0.006948 -0.123720 0.002737 -0.481183 0.177776 0.136425 -0.319781 -0.074672 0.690640 0.019854 -0.380240 0.285456 0.297501 -0.201686 0.116552 0.116187 -0.095370 0.082912 0.006783 -0.148509 -0.138185 0.254566 0.105843 -0.087131 0.117048 -0.017286 -0.052733 0.159196 -0.070183 -0.183244 0.153537 -0.147950 -0.119745 0.031522 -0.142717 0.105918 0.216709 -0.170277 -0.063842 0.216045 0.499621 0.184722 -0.019779 0.324888 0.129617 -0.003408 0.023230 0.246756 0.445115 0.413207 0.063145 -0.025517 -0.176616 0.038355 -0.170621 -0.001360 -0.235346 -0.124929 0.183890 -0.146546 -0.099713 
到 0.568920 0.203072 -0.383974 0.097120 0.340498 -0.542619 -0.109483 0.508503 0.170198 0.240632 -0.403776 -0.047893 -0.093372 -0.213992 -0.029570 -0.148481 -0.023830 -0.099093 0.122194 0.245628 0.015933 -0.100888 0.122325 -0.014404 0.070562 0.196106 0.267619 -0.146697 -0.130938 0.062939 -0.210032 0.168161 -0.245302 -0.276940 -0.656357 0.233500 -0.128806 -0.215130 -0.192101 0.088581 -0.293195 -0.046388 -0.055718 0.360156 0.013193 -0.002810 -0.139989 0.392382 -0.160853 -0.611265 0.260314 0.494306 -0.087714 0.178626 0.188902 0.214764 -0.377905 -0.228846 -0.241254 -0.096415 0.339668 0.503028 -0.531081 -0.156162 -0.062267 0.194142 0.522521 -0.378019 -0.817476 0.325196 -0.024135 -0.146868 0.045933 -0.307018 0.128787 -0.171893 -0.511656 -0.037416 0.240071 0.205197 -0.035379 0.259694 0.343806 0.033743 -0.159915 -0.343487 0.063514 0.381075 0.739007 0.244934 0.489039 0.521373 -0.226007 -0.272678 -0.174746 -0.228762 0.034062 0.626111 -0.066624 -0.419581 
等 -0.262207 -0.322551 -0.632193 0.114561 0.323907 -0.218269 0.128791 1.678697 0.212540 0.163155 0.194955 0.194225 0.001169 0.802753 -0.051668 0.560926 0.127162 0.571085 0.474200 0.074880 0.371312 -0.662658 -0.129239 0.276591 0.043083 0.808905 -0.330413 -0.321877 0.347434 -0.469606 -0.314576 0.035741 -0.234278 -0.291087 -0.404265 0.351043 0.017421 -0.646863 0.775138 0.178281 -0.347338 0.597625 -0.449211 0.262452 -0.034865 -0.302480 0.172584 0.507279 0.133028 -0.166384 0.018418 -0.048706 -0.248757 0.094922 0.049198 -0.455626 0.312947 0.170148 0.036047 -0.463857 0.129408 -0.097206 0.191316 0.205730 -0.008942 -0.608674 -0.329002 0.056987 0.184032 -0.311104 -0.063231 -0.172540 0.105570 -0.016453 0.014380 0.651647 -0.049464 -0.327214 0.224060 0.731025 -0.165875 -0.153012 0.337315 0.523363 -0.178284 0.010141 0.295096 0.625334 0.103308 -0.163999 -0.563122 -0.813649 0.075084 0.272020 -0.040405 -0.317760 -0.460743 -0.105384 -0.300509 0.043714 
中国 0.173830 0.027648 -0.903159 0.066093 0.315194 -0.475344 0.036258 0.680139 0.465549 0.120110 -0.371815 0.211171 -0.460329 0.175035 -0.116993 0.287715 0.101001 0.193722 0.582672 0.335122 0.083427 -0.495521 -0.161951 0.269921 -0.440639 0.554562 0.156921 -0.162316 -0.202176 -0.390702 -0.287812 0.149450 -0.294340 -0.187408 -0.137604 0.278746 -0.142905 -0.561126 0.218303 0.072747 -0.114822 -0.204093 -0.401724 0.413974 0.337602 -0.143596 -0.068708 0.847529 0.085478 -0.425852 0.593085 0.460545 0.089204 0.212606 0.254571 0.106907 0.133574 0.192661 -0.475524 0.136635 0.430336 -0.127140 -0.208988 0.294365 0.212441 -0.008859 0.528411 -0.050315 -0.312834 0.488896 -0.223370 -0.306990 -0.018724 -0.235931 0.322624 0.256607 -0.402521 -0.215945 0.168685 0.246638 0.394312 -0.071793 0.571374 -0.095261 -0.188096 0.162604 0.120709 0.388454 0.479177 0.010106 0.164012 -0.224001 -0.018963 -0.258188 0.012214 -0.504509 -0.095096 0.015516 -0.098125 0.046448 
后 0.797327 0.369577 -0.058566 0.015834 0.273090 -0.347574 -0.210379 0.815048 0.020288 0.346141 -0.145603 -0.180868 -0.045170 -0.142612 0.098977 -0.105529 0.034892 -0.209425 -0.075359 0.116658 0.144072 0.218664 0.337071 -0.262052 0.391704 -0.190407 0.361261 -0.235338 0.001082 0.197053 -0.343663 -0.133477 -0.457384 -0.238543 -0.616101 0.430010 0.022527 -0.109691 -0.176241 0.039961 -0.318347 0.056873 -0.252925 0.444536 -0.076367 0.251705 -0.398526 0.249628 -0.052023 -0.821801 -0.113136 0.233804 0.092789 0.231485 0.028220 0.123923 -0.323953 -0.275026 0.009331 -0.007878 0.369332 0.832694 -0.472909 -0.439851 -0.019730 0.287793 0.248014 -0.374224 -0.846830 0.293294 0.161332 -0.029111 0.014955 -0.216186 -0.029813 -0.149631 -0.423221 0.019858 0.154344 -0.026562 -0.417475 0.203122 0.208218 0.248976 -0.339530 -0.788905 -0.097368 0.439447 0.909822 0.276059 0.375468 0.740826 -0.133248 -0.165337 -0.484744 0.141137 0.174589 0.709802 -0.217151 -0.648474 
我 1.744039 0.902774 -0.436537 0.181951 0.339096 -1.335219 -0.899010 0.063373 0.125157 0.787060 -0.721240 0.008657 -0.253091 -0.956747 -0.276669 -0.959345 -0.104703 -0.719348 -0.367309 0.651638 0.114570 0.165314 0.243551 0.099422 0.450505 0.118531 1.223740 -0.286796 -0.392979 0.896980 0.002687 0.218566 -0.098203 -0.208774 -1.103880 -0.021563 -0.140302 0.249397 -0.705929 -0.211282 -0.520390 -0.193710 0.840676 0.234267 0.209822 0.146714 -0.442092 0.015698 -0.502485 -1.014365 -0.246960 0.950299 0.102249 -0.095647 -0.084064 0.833575 -1.438463 -0.481757 0.018790 -0.070285 0.020416 1.174138 -1.082543 -0.466674 -0.446386 0.058759 1.143680 -0.613973 -2.046597 1.017680 0.041880 -0.181081 -0.179302 -1.099664 -0.000814 -0.334464 -0.791251 0.417401 0.316038 0.310646 -0.018600 0.463235 0.547721 0.033217 -0.128804 -0.676198 0.049160 0.854820 1.008061 0.428588 1.925286 1.566500 -0.687406 -0.140602 -0.259710 -0.365780 0.273335 1.286934 0.011352 -0.918884 
我们 0.694123 0.371497 -0.723438 0.267876 0.454542 -1.003399 -0.266033 -0.046985 0.337013 0.428922 -0.710257 -0.052858 -0.314361 -0.518224 -0.354744 -0.316279 -0.148733 -0.289030 -0.142538 0.538640 -0.099661 -0.344617 -0.024333 0.199306 -0.206920 0.352216 0.534437 -0.160286 -0.293599 0.433699 -0.042451 0.287127 -0.271676 -0.277151 -0.824015 0.008015 0.018527 -0.333989 -0.311296 0.136979 -0.485610 -0.169330 0.623095 0.489825 0.080717 0.138302 -0.032578 0.402324 -0.186677 -0.772612 0.384118 0.848631 -0.032317 0.091273 0.386698 0.446895 -0.672892 -0.115611 -0.430952 -0.132271 0.341875 0.392005 -0.780113 -0.046576 -0.060144 0.021079 1.096679 -0.615434 -1.278370 0.647943 -0.014091 -0.393732 -0.089718 -0.843460 0.321400 -0.238601 -0.765058 -0.072641 0.304709 0.392913 0.121391 0.353828 0.804124 -0.061484 -0.108238 -0.173596 0.115870 0.455775 0.857426 0.315590 1.073715 0.748481 -0.422943 -0.254281 0.028397 -0.680713 -0.021184 0.730700 0.013018 -0.444349 
不 0.652613 0.305167 -0.396582 0.201002 0.249264 -0.786839 -0.473823 0.552400 0.068708 0.638993 -0.209100 -0.112257 -0.035090 -0.332850 -0.189994 -0.453957 -0.117377 -0.111616 -0.323917 0.257790 -0.003282 -0.195473 -0.114963 0.148369 0.276872 0.223883 0.339192 -0.352389 0.091153 0.552156 -0.061760 0.096724 -0.119942 -0.281960 -0.632007 0.235058 0.030611 0.152019 -0.089351 -0.047522 -0.500976 0.496200 0.474675 0.241186 -0.005310 -0.189679 -0.020031 0.081224 -0.266790 -0.803762 -0.203418 0.560082 0.155320 -0.000737 -0.041062 0.336354 -0.817690 -0.241828 0.024874 -0.482454 0.043319 0.575292 -0.585716 -0.218981 0.032612 -0.136522 0.605938 -0.482345 -1.190460 -0.010015 0.184652 -0.300166 -0.090717 -0.722972 -0.147903 -0.026712 -0.478785 0.238378 0.062673 0.420654 -0.162892 0.083246 0.332894 0.296090 -0.333233 -0.432882 0.155926 0.644178 0.414377 0.389962 0.877536 0.584229 -0.358689 0.024941 -0.104036 -0.273021 0.124120 0.691841 0.014972 -0.509047 
中 0.175396 -0.084726 -0.499259 0.034854 0.310829 -0.360814 -0.019329 1.037911 0.225159 0.266137 -0.051874 0.036863 -0.090498 0.329994 0.045003 0.106642 -0.056689 0.221854 0.236239 0.122534 0.145474 -0.412170 -0.113320 0.154741 -0.002732 0.385092 -0.083418 -0.239335 0.129211 -0.209678 -0.258470 0.084890 -0.351491 -0.214801 -0.354900 0.303316 0.020364 -0.363830 0.263958 0.061029 -0.254508 0.346544 -0.287898 0.279875 -0.023839 -0.124442 0.003953 0.514147 -0.002384 -0.532012 0.147446 0.215475 -0.083522 0.140699 0.006225 -0.088249 0.047538 0.023377 -0.176303 -0.393534 0.321601 0.319336 -0.128010 0.025368 0.146590 -0.232291 0.122849 -0.161726 -0.349131 -0.095153 -0.002346 -0.224829 0.041917 -0.250281 0.026817 0.247570 -0.263529 -0.124124 0.164589 0.445992 -0.183952 -0.014800 0.400355 0.322940 -0.249006 -0.177905 0.214553 0.517159 0.331712 0.041627 0.009982 -0.121289 0.016014 -0.009104 -0.067515 -0.126255 -0.126963 0.196393 -0.203946 -0.178969 
日 0.517727 -0.036021 0.101695 -0.711624 -0.091697 0.423407 0.321984 2.360966 -0.067459 -0.256176 0.394899 0.208048 0.362610 0.759914 1.030432 0.531817 0.245476 0.587755 1.319036 -0.206620 0.665757 0.849225 0.345095 -0.451240 0.659476 -0.024890 0.015395 -0.305694 -0.158274 -1.242236 -0.932555 -0.192116 -0.609152 -0.366725 0.176525 0.933850 -0.730318 -0.581690 0.046235 -0.674082 0.811681 -0.113668 -2.431174 0.277501 0.090737 -0.167928 -0.999797 1.434033 0.290237 -0.472580 0.325285 -0.268836 -0.060736 0.437055 -0.541878 -0.561623 0.930392 -0.279369 -0.071567 0.451333 0.709453 1.116043 0.078383 -0.351541 0.021852 0.808818 -0.699033 0.684266 0.498172 0.042020 -0.157756 0.702701 0.065113 1.078463 -0.270848 0.555348 0.618072 -0.198106 -0.185487 -0.193341 -0.558412 -0.521887 -0.432541 0.256651 -0.602573 -1.003855 -0.133606 0.784817 0.668522 -0.194127 -1.052373 0.203987 0.419724 0.004012 -1.113193 1.065577 0.643465 0.019659 -0.557278 -0.686189 
人 0.429911 0.223648 -0.456057 0.095037 0.293536 -0.564532 -0.188002 0.954499 0.134449 0.565891 0.048155 -0.215299 -0.010232 0.101683 -0.177370 0.047625 -0.027178 -0.102434 -0.342245 0.181886 0.196863 -0.194330 0.042206 0.034867 0.289859 0.043431 0.129921 -0.419070 0.260109 0.246726 -0.313619 -0.093378 -0.449912 -0.193721 -0.685075 0.328638 0.227356 -0.217575 0.117162 0.092816 -0.504420 0.366996 0.143698 0.478584 -0.233956 0.411436 -0.111188 0.082131 0.077722 -0.687214 -0.167528 0.176067 0.001031 0.202634 -0.002131 -0.066954 -0.274120 -0.096474 -0.021351 -0.318558 0.201298 0.603181 -0.412960 -0.224913 -0.069083 -0.247266 0.200769 -0.341654 -0.692727 0.083327 0.145774 -0.210546 -0.040969 -0.561117 0.089827 0.336695 -0.502746 -0.302970 0.295419 0.304941 -0.631847 0.181420 0.522797 0.439022 -0.327132 -0.504533 0.106380 0.592346 0.645109 0.166522 0.135226 0.375791 -0.244378 0.148646 -0.347578 -0.081105 -0.172237 0.496974 -0.290708 -0.335991 
这 0.447883 0.154808 -0.365047 0.091819 0.405398 -0.485199 -0.068811 0.281704 0.167588 0.121852 -0.365293 0.030445 -0.252897 -0.214461 -0.023436 -0.100849 -0.072601 -0.060853 0.111544 0.344123 -0.109362 -0.194810 0.036393 -0.057745 -0.101502 0.275493 0.208998 -0.085380 -0.199905 0.067302 -0.134295 0.201199 -0.361593 -0.300779 -0.531738 0.154714 -0.134803 -0.354936 -0.165131 0.039550 -0.149518 -0.031579 -0.007807 0.258826 -0.037387 0.003870 -0.135560 0.522374 -0.200258 -0.547639 0.345955 0.560332 -0.078360 0.237645 0.116394 0.152900 -0.202218 -0.245517 -0.327442 -0.131794 0.512501 0.502867 -0.407875 -0.045707 -0.080966 0.158567 0.640385 -0.431128 -0.785497 0.361409 -0.020917 -0.167721 -0.029023 -0.377713 0.122956 -0.152716 -0.427494 0.028132 0.134708 0.233569 0.074098 0.224389 0.565766 -0.020777 -0.152403 -0.242397 0.087174 0.478673 0.818115 0.196361 0.558954 0.541658 -0.273282 -0.222715 -0.157835 -0.296262 0.039025 0.491456 -0.067457 -0.488152 
一个 0.745697 0.291064 -0.563019 0.128048 0.436924 -0.744444 -0.250773 0.382408 0.262625 0.330752 -0.549066 0.040346 -0.231366 -0.348242 -0.122462 -0.221099 0.073612 -0.176641 0.078583 0.463308 -0.050778 -0.215126 -0.016986 0.021681 -0.056379 0.317252 0.389902 -0.147043 -0.184967 0.275412 -0.142613 0.209623 -0.280970 -0.263589 -0.631362 0.054618 -0.146380 -0.196963 -0.248252 0.054210 -0.338224 -0.065926 0.169129 0.271119 0.070565 0.084780 -0.098336 0.332671 -0.232939 -0.652412 0.232772 0.574818 0.005047 0.147889 0.204332 0.378747 -0.488144 -0.239212 -0.258044 -0.140809 0.333321 0.462217 -0.569170 -0.083747 -0.055971 0.111726 0.790057 -0.490041 -1.029887 0.493638 -0.045343 -0.263704 -0.053362 -0.585177 0.170601 -0.169775 -0.606392 0.035243 0.252270 0.221129 0.114736 0.298995 0.587340 -0.079730 -0.134608 -0.163918 0.076578 0.469922 0.791857 0.339209 0.801048 0.623122 -0.378816 -0.234053 -0.091888 -0.424323 0.015756 0.628394 -0.040330 -0.393410 
说 1.086823 0.585994 -0.432065 0.278141 0.480950 -0.957914 -0.477269 0.205118 0.178910 0.620540 -0.556939 -0.081253 -0.228665 -0.582155 -0.220325 -0.540245 0.001515 -0.476747 -0.394141 0.533932 -0.160968 -0.151092 0.144214 -0.073168 0.169061 0.044442 0.667084 -0.248559 -0.059442 0.674840 -0.136406 0.136697 -0.412783 -0.226272 -0.743829 0.087986 0.130927 0.006331 -0.365251 0.113812 -0.503518 -0.069599 0.614747 0.397118 -0.063890 0.350826 -0.333351 0.035675 -0.305290 -0.816193 -0.104260 0.735920 0.089374 0.219554 0.133373 0.414914 -0.816951 -0.278628 -0.242235 -0.182912 0.359340 0.853354 -0.899018 -0.303627 -0.219334 0.141914 1.016330 -0.687257 -1.538225 0.645332 0.068086 -0.250634 -0.074126 -0.901226 0.205480 -0.295487 -0.753118 0.148607 0.297649 0.141582 -0.115307 0.422168 0.719507 0.030735 -0.279807 -0.529846 0.023239 0.529359 1.061075 0.410769 1.219418 1.189638 -0.644134 -0.212683 -0.245685 -0.380644 0.147712 0.908105 -0.121259 -0.711030 
被 0.726395 0.339811 -0.132045 -0.057454 0.255262 -0.339407 -0.264192 0.877399 0.038027 0.384600 -0.139158 -0.142571 -0.078955 -0.214280 0.100872 -0.091716 0.038086 -0.177248 -0.086264 0.054693 0.145072 0.241623 0.262346 -0.145654 0.377068 -0.149000 0.389024 -0.320027 -0.016455 0.184273 -0.291572 -0.142685 -0.442240 -0.131623 -0.514416 0.384585 0.035112 -0.020453 -0.179996 0.008325 -0.302264 0.088176 -0.160231 0.448039 -0.132235 0.232747 -0.338517 0.249855 -0.074803 -0.834496 -0.105872 0.282660 0.084104 0.161967 0.027656 0.208408 -0.342048 -0.265693 -0.034981 -0.090911 0.366571 0.834676 -0.431843 -0.365619 0.037875 0.273787 0.339202 -0.295936 -0.842192 0.246644 0.149040 -0.076497 0.006894 -0.254466 -0.087642 -0.066340 -0.436064 0.004115 0.128429 0.109174 -0.441553 0.154678 0.226590 0.302081 -0.283929 -0.754907 -0.083040 0.451343 0.837374 0.284630 0.364036 0.691076 -0.168713 -0.128989 -0.440985 0.118508 0.195176 0.672929 -0.144179 -0.577955 
) 0.420544 -0.227324 -0.077168 -0.713018 -0.192142 0.042559 0.118377 1.997094 -0.415873 -0.251555 0.364519 0.376565 0.086695 0.804821 0.814353 0.352509 0.333051 0.583381 1.090930 0.036237 0.893427 0.650771 0.233091 -0.013149 0.481825 0.736143 0.160586 -0.258602 -0.200411 -1.253214 -0.725735 0.051149 -0.393142 -0.215802 0.082726 0.488734 -0.846420 -0.480320 0.198476 -0.992675 0.823473 0.184053 -2.378161 -0.246239 0.663826 -0.990564 -0.654727 1.227381 0.368904 -0.465823 -0.009035 -0.154720 -0.087858 0.056770 -0.485419 -0.372650 0.410064 -0.136013 0.296018 0.155812 0.050103 0.710784 0.230940 -0.132193 -0.176022 0.056237 -0.968863 0.704912 0.491465 -0.249394 -0.102347 0.471820 0.169965 0.730893 -0.321252 0.882291 0.583932 0.224946 -0.166617 0.184551 -0.048559 -0.812128 -0.906876 0.424049 -0.339949 -0.272533 0.191457 1.270023 0.021177 -0.162694 -0.520160 -0.538138 0.759162 0.054645 -0.426622 1.002861 0.352576 0.041428 -0.246467 -0.456882 
而 0.214192 -0.075627 -0.409487 0.024947 0.347821 -0.354975 0.013377 0.491597 0.151658 0.012789 -0.391133 0.071304 -0.275664 -0.020039 0.092305 0.026540 -0.032044 0.142692 0.316833 0.167021 0.001499 -0.261795 -0.019517 0.063154 -0.146939 0.491521 0.067795 -0.027165 -0.204459 -0.219787 -0.165902 0.231027 -0.267923 -0.299021 -0.337113 0.171583 -0.144279 -0.358799 -0.105505 0.059039 -0.042913 -0.007806 -0.358746 0.184267 0.038696 -0.338100 -0.035176 0.670199 -0.167641 -0.481600 0.394969 0.496404 -0.194329 0.153107 0.161800 0.055820 -0.095037 -0.188122 -0.285510 -0.273469 0.451053 0.334787 -0.320981 0.007276 0.031819 0.098283 0.414931 -0.305575 -0.437324 0.077865 -0.105995 -0.106571 0.024503 -0.217789 0.055286 -0.089276 -0.278286 0.053582 0.208957 0.437657 0.170928 0.113564 0.301861 -0.072172 -0.078913 -0.040176 0.201588 0.419386 0.558757 0.222469 0.232893 0.100863 -0.034730 -0.345169 0.050752 -0.265712 -0.033342 0.434696 -0.127095 -0.309713 
( 0.355902 -0.218163 -0.131658 -0.606018 -0.161719 0.013698 0.142313 1.827883 -0.309542 -0.264000 0.266616 0.377706 0.042088 0.720172 0.733669 0.303649 0.293286 0.556436 1.052552 0.066178 0.744079 0.485400 0.140837 -0.002523 0.378037 0.742949 0.121602 -0.225671 -0.165275 -1.149964 -0.639995 0.094355 -0.340944 -0.267557 0.057283 0.457946 -0.816436 -0.471572 0.182592 -0.856508 0.736588 0.173573 -2.125401 -0.234954 0.598827 -0.935870 -0.573594 1.172758 0.276048 -0.391758 0.071382 -0.080818 -0.116403 0.093448 -0.437696 -0.347269 0.398891 -0.151688 0.212153 0.113279 0.095620 0.629012 0.189535 -0.078491 -0.170309 0.062538 -0.805052 0.608855 0.433055 -0.205260 -0.121486 0.402431 0.141014 0.643140 -0.277172 0.774877 0.516142 0.197053 -0.160745 0.200004 0.005584 -0.700607 -0.706630 0.331274 -0.351629 -0.224520 0.211848 1.178270 0.061802 -0.116599 -0.492793 -0.481910 0.649850 0.067714 -0.386013 0.800663 0.295831 0.038416 -0.238571 -0.450261 
还 0.502720 0.204529 -0.339671 0.103902 0.344271 -0.606674 -0.266808 0.519462 0.126500 0.374365 -0.284508 -0.033336 -0.117974 -0.144667 -0.049072 -0.207771 -0.127666 -0.047425 -0.051528 0.261324 0.047547 -0.221459 0.047377 0.054134 0.120499 0.216396 0.197044 -0.253653 -0.014979 0.221017 -0.174099 0.105526 -0.328496 -0.257777 -0.588913 0.185248 -0.013384 -0.154381 -0.105143 0.036807 -0.309474 0.140896 0.143981 0.300553 -0.021382 -0.072464 -0.052151 0.287532 -0.179556 -0.650380 0.129619 0.454956 -0.053621 0.143817 0.047969 0.142918 -0.418784 -0.154441 -0.176837 -0.253044 0.281974 0.490304 -0.444868 -0.205021 -0.094417 -0.046280 0.426151 -0.402148 -0.838745 0.173125 0.065067 -0.197639 -0.010350 -0.499980 0.022532 -0.057747 -0.465280 0.095933 0.242400 0.366908 -0.160637 0.203386 0.458142 0.191489 -0.152283 -0.313624 0.138004 0.544786 0.591926 0.265418 0.607504 0.529404 -0.220515 -0.099830 -0.098924 -0.221001 0.064835 0.621707 -0.080085 -0.437473 
可以 0.361428 0.067164 -0.519924 0.235653 0.425619 -0.705296 -0.092122 0.213803 0.085653 0.323274 -0.489676 0.010567 -0.127267 -0.250922 -0.241745 -0.235747 -0.050611 -0.020319 0.053579 0.281616 -0.175949 -0.366986 -0.105729 0.050480 -0.054192 0.458447 0.176711 -0.031485 -0.079104 0.200837 -0.043183 0.247195 -0.123206 -0.404862 -0.529436 0.031771 -0.059267 -0.184499 -0.129756 0.121020 -0.350475 0.166204 0.211075 0.262087 -0.003024 -0.305980 0.092254 0.406671 -0.207957 -0.550727 0.232919 0.680818 -0.083942 0.116980 0.225798 0.217643 -0.478187 -0.286636 -0.302987 -0.364408 0.269867 0.324495 -0.570224 -0.090513 -0.158035 0.114248 0.740557 -0.605874 -0.904914 0.123686 0.018105 -0.233715 -0.026536 -0.535599 0.201684 -0.201189 -0.495052 0.094869 0.164432 0.391144 0.199987 0.222556 0.400226 -0.091732 -0.149851 -0.030201 0.238590 0.439357 0.693672 0.402649 0.579320 0.415560 -0.314829 -0.242496 0.041220 -0.470861 -0.083014 0.592393 -0.006488 -0.440227 
从 0.241957 -0.052085 -0.303807 0.013453 0.254827 -0.265151 0.049251 0.956810 -0.004880 0.217014 -0.147006 -0.009347 0.039078 0.185841 0.061890 0.014492 0.004310 0.222926 0.380007 -0.029445 0.053149 -0.096467 0.095123 -0.097558 0.141047 0.242787 -0.015204 -0.087791 0.047490 -0.217491 -0.246987 0.099016 -0.233870 -0.380313 -0.222904 0.374950 -0.078152 -0.213141 0.099359 -0.030177 -0.041559 0.175368 -0.532786 0.292868 0.084721 -0.393129 -0.189183 0.544067 -0.041213 -0.548333 0.097590 0.252908 -0.039057 0.186127 0.004403 -0.203036 -0.019507 -0.196228 -0.150080 -0.264233 0.295243 0.454787 -0.263564 -0.224887 0.037248 0.227289 0.108435 -0.209384 -0.383563 -0.138905 -0.046832 0.013470 0.086929 -0.090783 -0.006348 0.019500 -0.105857 0.086195 0.014017 0.219964 -0.034384 -0.039592 0.016471 0.069860 -0.344909 -0.362032 0.131200 0.381133 0.517927 0.186369 0.005424 0.155270 0.053500 -0.185386 -0.208740 0.027121 0.125040 0.352069 -0.271327 -0.398372 
并 0.294678 -0.051748 -0.476613 0.053927 0.326003 -0.332807 -0.049396 1.035105 0.214369 0.209224 -0.130556 0.077202 -0.109304 0.216694 0.064762 0.108780 0.035807 0.201810 0.251697 0.188899 0.140252 -0.320498 -0.091033 -0.001117 0.026088 0.277461 -0.024861 -0.167317 0.084789 -0.088668 -0.228367 0.077954 -0.239314 -0.261717 -0.273856 0.339760 -0.038035 -0.272313 0.133107 0.089702 -0.236683 0.235252 -0.288318 0.204528 -0.020527 -0.093385 -0.115348 0.478011 -0.041536 -0.462830 0.045634 0.216349 -0.008893 0.189343 0.052670 -0.024975 0.006084 -0.054304 -0.078266 -0.275833 0.270256 0.264532 -0.135179 0.001693 0.057042 -0.057096 0.168916 -0.199884 -0.383358 -0.016744 0.018297 -0.185135 0.002996 -0.250449 -0.031563 0.158762 -0.233518 -0.074273 0.136046 0.258246 -0.067393 -0.008865 0.272017 0.196567 -0.203269 -0.248236 0.141550 0.466164 0.454939 0.131275 0.076079 0.049508 -0.064519 -0.089616 -0.165548 -0.114397 -0.052466 0.222169 -0.168824 -0.275449 
《 0.236065 -0.272349 -0.492141 -0.505484 -0.109958 0.093461 0.038998 1.843224 0.273815 -0.330380 0.185312 0.523574 0.215029 1.010037 0.580089 0.521420 0.076949 0.721857 1.279514 0.514447 0.515576 -0.435737 -0.121680 -0.053510 0.151100 0.593954 -0.211894 -0.421614 0.001844 -0.698523 -0.523372 0.187818 -0.504352 -0.515065 0.179925 0.500105 -0.547021 -0.857195 0.328805 -0.510043 0.250297 0.033424 -1.259648 -0.014755 0.154479 0.123032 -0.656951 1.071678 0.157773 0.101048 0.114576 -0.312065 -0.127934 0.209326 -0.422562 -0.773675 0.719801 0.261228 -0.089090 0.099806 0.460940 0.263639 0.397981 0.364161 0.035942 0.148733 -0.689126 0.617204 0.375824 0.118020 -0.524051 -0.011640 0.295496 0.285493 -0.098825 0.873562 0.364333 -0.027822 0.123162 0.430366 -0.036861 -0.396719 0.359184 0.440904 -0.255294 -0.386726 0.235586 1.102579 0.437262 -0.520132 -0.301924 -0.129561 0.212661 0.502546 -0.650641 0.484214 0.394699 -0.208660 -0.089755 -0.118061 
》 0.209232 -0.283634 -0.400612 -0.495815 -0.122145 0.145566 0.026956 1.764892 0.200143 -0.339141 0.220471 0.494309 0.198800 1.000151 0.590252 0.508668 0.054644 0.680108 1.214862 0.473753 0.520140 -0.381055 -0.067502 -0.129678 0.147359 0.501423 -0.234064 -0.432714 0.002100 -0.657215 -0.552049 0.166944 -0.531493 -0.483549 0.207628 0.500132 -0.514968 -0.831875 0.310130 -0.535992 0.274838 0.039452 -1.208417 -0.004765 0.100451 0.140382 -0.712522 1.033625 0.166559 0.061864 0.071147 -0.332864 -0.129419 0.231689 -0.428087 -0.783446 0.731490 0.245195 -0.078125 0.096157 0.468184 0.327577 0.381032 0.313362 -0.010713 0.205548 -0.730953 0.607708 0.394946 0.085023 -0.484401 0.015732 0.271676 0.307393 -0.099253 0.864466 0.380866 0.000765 0.069587 0.407758 -0.060215 -0.390970 0.343759 0.471537 -0.275652 -0.418266 0.204288 1.079305 0.452705 -0.491176 -0.307164 -0.072647 0.219122 0.532021 -0.667326 0.535189 0.401506 -0.180652 -0.074250 -0.156294 
但 0.356228 0.134737 -0.449605 0.152737 0.276849 -0.415070 -0.037464 0.456780 0.143521 0.209013 -0.386767 -0.001157 -0.297360 -0.088340 -0.049541 -0.052801 -0.135614 0.027457 0.157079 0.209695 -0.045106 -0.311652 -0.003649 -0.001492 -0.071994 0.240079 0.198135 -0.078234 -0.099588 0.007752 -0.176786 0.121488 -0.301388 -0.319808 -0.417414 0.238900 -0.028871 -0.296220 -0.046348 0.098196 -0.219738 0.086554 -0.113481 0.340062 0.041764 -0.179435 -0.036056 0.500969 -0.125808 -0.607587 0.307211 0.431806 -0.000913 0.254880 0.126607 0.088044 -0.172293 -0.153208 -0.329201 -0.204897 0.417824 0.454117 -0.443151 -0.054650 0.091994 0.070644 0.492172 -0.417896 -0.671436 0.192402 -0.027916 -0.198273 -0.041069 -0.411527 0.097118 -0.167011 -0.402579 0.056241 0.120173 0.237801 0.115135 0.207547 0.478244 -0.067548 -0.281650 -0.253008 0.151498 0.438731 0.674528 0.245915 0.393506 0.315601 -0.109586 -0.301315 -0.105987 -0.271329 0.009955 0.458600 -0.180427 -0.391658 
（ 0.349593 -0.281334 -0.566442 -0.461217 0.068073 -0.049609 -0.167378 2.100242 0.096295 -0.014891 0.072534 0.516910 0.065677 0.739978 0.648411 0.212334 0.138528 0.567944 1.220953 0.054998 0.701213 0.247588 -0.167557 0.257501 0.343706 0.737817 0.011957 -0.254548 -0.264373 -1.102324 -0.388799 0.140009 0.019870 -0.339045 0.230444 0.619672 -0.596103 -0.258612 0.153027 -0.615335 0.453121 0.054393 -1.601717 -0.204251 0.443799 -0.759779 -0.251772 1.013369 -0.107946 -0.335151 0.146701 -0.038520 0.094711 -0.152511 -0.488871 -0.112561 0.259751 -0.119516 0.314839 -0.086751 0.068369 0.345381 0.378166 -0.004570 0.169023 -0.007414 -0.639612 0.708519 0.257876 -0.171821 -0.148017 0.194992 -0.015378 0.334476 -0.485817 0.606547 0.453462 0.257540 0.115454 0.436109 0.142633 -0.615410 -0.506476 0.367854 -0.085058 -0.187397 0.162347 0.765330 -0.280660 -0.198402 -0.313781 -0.658411 0.535971 -0.062405 -0.177435 0.584864 0.328985 -0.052793 -0.228293 -0.139159 
/ 0.988503 -0.088465 -0.445606 -0.973636 -0.432327 -0.502051 -1.036179 2.578131 -0.253482 0.056348 -0.170522 1.128050 0.353022 0.039108 0.793793 -0.420653 0.605687 0.380848 1.939571 -0.120976 1.675054 1.055409 -0.594492 1.068929 1.123136 2.008733 1.122887 -0.544015 -1.006714 -1.519567 -0.510203 0.059170 1.043418 -0.692612 -0.088352 0.899363 -1.566185 0.512590 -0.334089 -1.597196 0.501882 0.173416 -2.127805 -0.867757 1.118933 -2.229326 -0.194654 1.628007 -0.811717 -0.471261 -0.170561 0.609194 0.097747 -1.372115 -0.730009 1.001110 -1.174000 -0.709048 0.878932 -0.118430 -0.735757 0.656848 0.045506 0.100711 0.334906 0.223808 -0.466564 1.389535 -0.516340 -0.081645 -0.435510 0.442404 -0.204185 0.586558 -1.333174 0.850153 0.733878 1.033320 0.409406 1.625888 0.615288 -1.088228 -1.307006 0.544700 0.394690 0.091903 0.693845 1.675320 -0.951859 0.261053 0.093085 -1.074450 0.331130 0.099789 -0.182048 0.530055 0.214937 0.584120 0.296835 0.017091 
时 0.537910 0.271645 -0.249852 0.063757 0.254383 -0.439726 -0.107042 0.899315 0.115895 0.338306 -0.135247 -0.151138 -0.029711 -0.115744 0.007046 0.031775 0.087172 -0.080764 0.079048 0.102515 0.131564 0.082488 0.207097 -0.133336 0.272206 -0.000495 0.282463 -0.312875 -0.000406 0.102024 -0.335737 -0.096825 -0.392752 -0.266305 -0.570537 0.457232 0.044755 -0.243915 -0.098520 0.084490 -0.345723 0.079744 -0.201661 0.561211 -0.048070 0.218012 -0.311978 0.385285 -0.026499 -0.674097 0.048276 0.310607 0.041128 0.188700 0.161658 0.084762 -0.255430 -0.121918 -0.122732 -0.045322 0.372310 0.614857 -0.471175 -0.272788 0.060432 0.333738 0.352623 -0.278044 -0.674088 0.256447 0.040015 -0.080249 0.039011 -0.189167 0.057522 0.036820 -0.385976 -0.115610 0.181051 0.085527 -0.360860 0.126747 0.333482 0.242189 -0.328606 -0.695606 -0.033788 0.394875 0.785429 0.212855 0.167791 0.517493 -0.166971 -0.093463 -0.447328 -0.042965 0.091667 0.542503 -0.204174 -0.424227 
） 0.381363 -0.274247 -0.569542 -0.398283 0.099218 -0.084432 -0.170795 2.057392 0.117476 -0.000979 0.051983 0.488225 0.061859 0.703688 0.626999 0.190654 0.163870 0.554745 1.165435 0.054978 0.636339 0.204692 -0.195394 0.207309 0.339028 0.696844 0.002878 -0.212029 -0.213083 -0.975408 -0.371765 0.133286 0.029578 -0.319532 0.257179 0.570687 -0.566991 -0.244217 0.152694 -0.538522 0.388961 0.073738 -1.507565 -0.198168 0.408666 -0.715526 -0.239751 0.962352 -0.132167 -0.341776 0.126792 -0.027728 0.087726 -0.121145 -0.454418 -0.085060 0.243562 -0.137764 0.295893 -0.094904 0.059305 0.324568 0.353370 0.003765 0.167529 0.002292 -0.539577 0.616206 0.225006 -0.161046 -0.145064 0.171419 -0.022551 0.299526 -0.454836 0.551148 0.426973 0.244301 0.110124 0.400740 0.157279 -0.572944 -0.455066 0.313854 -0.090068 -0.158746 0.162015 0.694543 -0.243414 -0.143760 -0.318317 -0.578514 0.490999 -0.064555 -0.161360 0.519607 0.267258 -0.053924 -0.243494 -0.144649 
更 0.316272 0.026936 -0.628888 0.314162 0.469928 -0.691173 -0.005803 0.055347 0.225567 0.172987 -0.604191 0.041269 -0.203174 -0.179467 -0.227218 -0.177178 0.011821 0.088355 0.143725 0.340575 -0.160506 -0.585097 -0.118276 0.051808 -0.212805 0.615779 0.111446 0.067588 -0.144001 0.165157 -0.067408 0.374642 -0.137060 -0.429929 -0.508782 0.022330 -0.060906 -0.334876 -0.083210 0.197764 -0.335483 0.104009 0.100782 0.247025 0.041093 -0.443741 0.038854 0.561291 -0.162731 -0.535687 0.383259 0.730513 -0.168152 0.144853 0.352338 0.132668 -0.403137 -0.215481 -0.380046 -0.367569 0.344734 0.128643 -0.570248 0.105622 -0.077408 0.051905 0.834476 -0.648663 -0.825456 0.179369 -0.031253 -0.263071 -0.021341 -0.577541 0.253811 -0.262972 -0.513186 0.104828 0.263359 0.470439 0.341838 0.250530 0.497579 -0.199557 -0.021200 0.145364 0.298626 0.416501 0.688679 0.444995 0.540658 0.299234 -0.300336 -0.424573 0.219175 -0.563306 -0.106369 0.573605 -0.024318 -0.348453 
让 0.647156 0.290712 -0.507614 0.133540 0.347697 -0.709905 -0.237209 0.327102 0.176577 0.335230 -0.457566 -0.007538 -0.115275 -0.305056 -0.118575 -0.329039 -0.005335 -0.139838 0.002538 0.378281 0.021054 -0.187813 -0.013135 0.083331 0.063141 0.387252 0.387359 -0.150706 -0.128055 0.237375 -0.115422 0.245794 -0.166935 -0.307867 -0.659837 0.063255 -0.123778 -0.115639 -0.264489 -0.004179 -0.298075 0.007004 0.179968 0.250256 0.047849 -0.075694 -0.101938 0.378200 -0.210136 -0.577558 0.171241 0.625251 -0.041869 0.101928 0.151753 0.307752 -0.552816 -0.283601 -0.223383 -0.160804 0.220154 0.474297 -0.600707 -0.102268 -0.123949 0.029411 0.718720 -0.460614 -0.991690 0.367234 0.001814 -0.216860 -0.034861 -0.580524 0.089397 -0.148729 -0.525442 0.052197 0.260180 0.334075 0.026826 0.237570 0.449147 -0.007918 -0.120238 -0.188144 0.140235 0.503202 0.633235 0.288661 0.741725 0.582259 -0.324084 -0.162492 -0.044596 -0.326942 0.004269 0.647897 0.004822 -0.417842 
自己 0.800155 0.421135 -0.460495 0.158429 0.430500 -0.748038 -0.353085 0.354834 0.192104 0.417516 -0.520149 -0.035876 -0.181409 -0.438028 -0.093455 -0.346008 -0.024308 -0.250958 -0.135859 0.450845 -0.042076 -0.127137 0.046755 0.030045 0.092348 0.198685 0.447693 -0.208080 -0.158999 0.369552 -0.106691 0.173154 -0.302245 -0.221809 -0.714790 0.089515 -0.025035 -0.079546 -0.290351 0.084256 -0.381969 -0.077023 0.309640 0.308583 -0.014440 0.162109 -0.120164 0.235535 -0.279249 -0.731388 0.181519 0.597806 0.050231 0.158429 0.144462 0.432308 -0.593602 -0.278110 -0.254872 -0.155482 0.343187 0.614565 -0.641963 -0.157841 -0.043972 0.067719 0.850538 -0.536854 -1.175969 0.511029 0.037363 -0.272614 -0.076047 -0.649618 0.056855 -0.246944 -0.664403 0.014881 0.290768 0.209679 -0.072241 0.339774 0.577105 0.001058 -0.158387 -0.367476 -0.006303 0.377881 0.797614 0.317435 0.914742 0.778799 -0.420421 -0.196361 -0.152768 -0.370191 0.065306 0.735580 -0.067703 -0.490251 
会 0.517371 0.110441 -0.534536 0.193212 0.397681 -0.714923 -0.154386 0.106046 0.227727 0.250087 -0.479319 0.050654 -0.205267 -0.175834 -0.217304 -0.272850 -0.181158 -0.121443 -0.031956 0.356724 0.038365 -0.312917 0.035883 0.165116 -0.189521 0.397594 0.356249 -0.091682 -0.149210 0.119283 -0.108128 0.369286 -0.214583 -0.273170 -0.684255 0.081162 -0.019580 -0.353096 -0.256756 0.076341 -0.341386 -0.126699 0.157424 0.326186 0.050745 -0.128341 -0.153805 0.535641 -0.169189 -0.610950 0.325974 0.707709 -0.163961 0.118940 0.277767 0.200442 -0.439525 -0.146860 -0.364537 -0.216868 0.256842 0.450665 -0.602049 -0.164875 -0.164024 -0.151020 0.613241 -0.481096 -0.924645 0.343147 -0.057167 -0.232622 0.038335 -0.591052 0.185799 -0.071797 -0.478026 -0.042948 0.323499 0.480540 0.000626 0.251279 0.573366 -0.005084 -0.039753 -0.076183 0.236224 0.552319 0.653734 0.151611 0.728037 0.427758 -0.250129 -0.247598 0.041280 -0.414242 -0.101561 0.537124 -0.082538 -0.451146 
要 0.683012 0.277713 -0.392967 0.113861 0.328550 -0.658632 -0.274067 0.411957 0.155394 0.366921 -0.394382 0.041663 -0.167182 -0.285900 -0.094666 -0.319247 -0.025679 -0.175764 -0.025413 0.350199 0.025665 -0.095823 0.036479 0.029747 0.079281 0.284060 0.390632 -0.159349 -0.111977 0.212859 -0.143511 0.185112 -0.220362 -0.267593 -0.629584 0.113934 -0.074181 -0.164213 -0.232337 -0.010619 -0.246213 0.014676 0.090992 0.211476 0.049981 -0.042656 -0.192177 0.326058 -0.235933 -0.658093 0.066888 0.568252 -0.005864 0.134892 0.064859 0.281569 -0.473107 -0.276204 -0.166495 -0.216362 0.248305 0.576332 -0.570351 -0.198627 -0.137098 0.021904 0.617290 -0.424897 -0.958872 0.348194 0.017885 -0.127849 -0.031847 -0.534115 0.047430 -0.107718 -0.428359 0.111262 0.184039 0.284869 -0.003861 0.208923 0.354315 0.046496 -0.155753 -0.268885 0.111566 0.493291 0.648865 0.302002 0.685603 0.577266 -0.305594 -0.173126 -0.128324 -0.267478 0.059248 0.621525 -0.134388 -0.519822 
　 0.745350 -0.161713 0.078015 0.102579 0.380411 0.770967 0.422343 1.025606 -0.525796 -0.317455 -0.656115 0.357094 -1.489800 0.374056 -0.093092 -0.077401 -0.478334 0.140878 1.411128 -0.731963 0.172743 -0.661633 1.765208 -0.845100 -0.842347 0.025641 -0.178776 0.483301 0.111084 -0.858078 -0.441259 -0.142487 -1.349283 0.590246 -0.096711 0.139880 0.436840 -1.189374 0.829625 0.608601 0.121532 -0.460418 -1.611668 0.418639 0.609437 -1.101560 -1.587491 0.327607 -0.118066 -1.388943 -0.604879 -0.371540 -0.619885 1.592724 -0.160274 -1.530794 1.789118 -0.063637 -0.520156 -0.218128 1.106663 1.286587 -0.353133 -0.813179 -0.459158 1.292611 -0.431387 -0.414228 0.575489 0.463902 -0.687399 0.849656 0.485249 0.291512 0.722484 -0.307692 -0.267434 0.334388 -0.229345 -0.095976 0.544902 0.697352 -0.132486 -0.583994 -0.808282 -0.293096 0.562629 -0.545915 1.888062 0.095198 -1.028027 -0.042027 0.522260 -1.056393 -0.271818 -0.203230 -0.093750 0.426736 -1.776382 -0.525826 
1 0.179345 -0.232336 -0.089773 -0.475367 -0.204882 0.140301 -0.039729 1.760653 -0.202102 -0.085999 0.157364 0.274167 0.177508 0.642680 0.633467 0.114884 -0.021190 0.516918 0.932147 -0.071750 0.619000 0.315237 -0.032925 -0.088737 0.407974 0.523397 -0.025348 -0.279246 -0.044768 -0.817933 -0.510232 0.064219 -0.195246 -0.391629 0.145301 0.565819 -0.565168 -0.285482 0.029365 -0.656095 0.452919 0.273422 -1.429218 -0.085910 0.169836 -0.573790 -0.518607 1.051980 -0.008349 -0.344785 -0.025093 -0.069591 -0.043941 0.045694 -0.499194 -0.366498 0.217842 -0.228309 0.054644 -0.095856 0.116065 0.659449 0.044314 -0.055320 0.042248 0.339916 -0.663055 0.496901 0.262638 -0.399741 -0.076840 0.315111 -0.004446 0.426482 -0.411729 0.597809 0.449129 0.234316 -0.109564 0.341741 -0.101725 -0.397403 -0.315363 0.391642 -0.410895 -0.475057 0.260460 0.912602 -0.019278 -0.046583 -0.465091 -0.211193 0.407058 0.205713 -0.389851 0.682659 0.372859 0.185746 -0.253177 -0.356626 
； -0.199600 -0.391901 -0.350418 0.068390 0.141972 -0.184190 0.153417 1.331792 -0.104391 0.107745 0.135399 0.017034 0.035798 0.601954 0.168109 0.128596 -0.081973 0.556469 0.282947 -0.042301 0.139926 -0.345515 -0.195594 -0.005110 0.045687 0.552013 -0.302753 -0.144671 0.302505 -0.494250 -0.304167 0.177674 -0.233183 -0.474066 -0.121621 0.414693 -0.122561 -0.375304 0.370823 -0.043322 0.032425 0.770741 -0.733792 0.092608 0.061887 -0.817562 0.039061 0.644457 0.031014 -0.434666 -0.042429 0.114185 -0.120746 0.180057 -0.125710 -0.294398 0.089913 -0.129981 -0.006545 -0.547014 0.125889 0.321017 0.023424 -0.024336 0.034775 -0.281119 -0.381777 -0.157083 -0.015685 -0.721954 0.167392 -0.098592 0.061923 -0.073917 -0.137130 0.410774 0.031517 0.132538 -0.156207 0.339452 -0.005392 -0.291071 -0.129584 0.353483 -0.441960 -0.178288 0.374566 0.763495 0.021825 0.141941 -0.372282 -0.316087 0.341009 0.047497 0.012243 0.145378 -0.102104 0.095610 -0.284355 -0.367410 
其 0.092860 -0.152866 -0.410180 0.019210 0.316027 -0.171873 0.082509 1.072323 0.189611 0.122661 -0.077000 -0.014344 -0.050595 0.317883 0.126874 0.218329 0.020856 0.327485 0.324161 -0.039537 0.201480 -0.250251 -0.001645 0.018836 0.099421 0.363569 -0.133436 -0.145541 0.033008 -0.267584 -0.278485 0.055461 -0.251393 -0.270605 -0.337559 0.380417 -0.013589 -0.366449 0.207308 0.108980 -0.225250 0.298242 -0.520682 0.310005 -0.036856 -0.227472 -0.025755 0.627071 0.038149 -0.554558 0.201769 0.193663 -0.063048 0.170712 0.101060 -0.145944 0.034250 -0.095413 -0.140850 -0.392978 0.309156 0.278471 -0.151140 -0.035324 0.140329 -0.103561 0.060631 -0.187046 -0.253810 -0.194923 -0.010180 -0.140023 0.066791 -0.080173 -0.060770 0.118021 -0.189549 -0.149485 0.095513 0.415938 -0.093168 -0.028168 0.217300 0.243802 -0.196008 -0.263585 0.175774 0.450749 0.476352 0.137090 -0.156097 -0.157130 0.082754 -0.136799 -0.114445 -0.095591 -0.093508 0.226711 -0.191669 -0.235097 
元 0.008234 -0.260850 -0.102260 0.018903 0.050934 -0.112557 0.067590 0.923792 -0.252492 0.035908 -0.168459 -0.074577 -0.160999 0.242507 0.306952 -0.133182 0.074066 0.213755 0.185638 -0.118234 0.102123 0.060013 -0.177218 -0.286344 0.179910 0.326002 -0.271377 0.090790 0.200895 -0.414447 -0.320822 0.095802 -0.154401 -0.461331 0.017681 0.440934 -0.250222 -0.190895 -0.248730 -0.086993 0.292309 0.395596 -0.821620 -0.051220 0.014512 -0.785871 -0.136337 0.685937 -0.283731 -0.372873 -0.055399 0.321327 -0.196504 0.264516 -0.252840 -0.138803 -0.113146 -0.511603 -0.083980 -0.311848 0.206269 0.424717 -0.370729 -0.195139 -0.212067 0.462979 -0.003562 -0.236635 -0.054391 -0.518722 0.238225 0.244907 -0.017888 0.051355 -0.139438 0.023686 0.033339 0.404992 -0.074440 0.135510 0.141305 0.060114 -0.398331 0.108299 -0.455591 -0.203729 0.495446 0.657316 0.193454 0.632023 -0.601241 0.331759 0.105784 -0.309783 -0.016868 0.273635 0.046678 0.578628 -0.364208 -0.723776 
进行 0.189576 -0.049950 -0.319808 0.143824 0.297678 -0.275277 0.073853 1.002064 0.182135 0.158826 -0.142608 -0.037271 0.002275 0.251370 -0.011877 0.249824 0.115761 0.176181 0.249412 0.013072 0.208378 -0.337860 0.111517 -0.100852 0.122158 0.256502 -0.112353 -0.133813 0.116320 -0.113580 -0.327695 0.018484 -0.272783 -0.313831 -0.447576 0.388806 0.065170 -0.427006 0.274652 0.267470 -0.337852 0.249420 -0.408887 0.351158 -0.083300 -0.118974 -0.151316 0.533462 0.065157 -0.518328 0.050740 0.172265 -0.087132 0.216374 0.219503 -0.096892 0.017052 -0.058016 -0.055610 -0.242452 0.333187 0.208592 -0.246125 -0.047858 -0.007289 0.016236 0.104415 -0.332222 -0.380715 -0.046393 0.047041 -0.140017 0.074607 -0.105710 0.093985 0.090174 -0.318448 -0.180514 0.230298 0.231464 -0.115134 0.068585 0.243306 0.194868 -0.165016 -0.320582 0.161449 0.405177 0.659406 0.240267 -0.169756 0.026166 -0.083310 -0.208304 -0.256297 -0.178455 -0.180074 0.321495 -0.242143 -0.282979 
3 0.255520 -0.090798 -0.155431 -0.309026 0.061131 0.003787 0.035746 1.391232 -0.057178 -0.026303 -0.065990 0.168310 0.036079 0.403347 0.510671 0.142021 0.114642 0.367710 0.718531 0.003860 0.397186 0.224111 0.012788 -0.193244 0.279345 0.330052 -0.097667 -0.091164 -0.135986 -0.684070 -0.435413 -0.038538 -0.291834 -0.312741 0.074293 0.481765 -0.423262 -0.356626 0.003279 -0.365830 0.359237 0.086160 -1.247357 -0.019278 0.064545 -0.384203 -0.348378 0.877413 -0.041774 -0.376330 0.182983 0.022329 -0.033015 0.261781 -0.345278 -0.166401 0.302417 -0.323114 -0.039019 0.008476 0.359849 0.544927 -0.059110 -0.074008 -0.080383 0.425861 -0.198867 0.136340 0.036259 -0.124254 -0.038292 0.258466 -0.020932 0.309835 -0.181785 0.259797 0.164399 0.056753 -0.019987 0.132749 -0.073856 -0.162661 -0.144777 0.143942 -0.323370 -0.329387 0.170444 0.628873 0.386072 0.183443 -0.446534 0.114820 0.132619 -0.131913 -0.423799 0.410360 0.216822 0.230969 -0.303546 -0.487345 
没有 0.701869 0.342723 -0.451448 0.173474 0.360470 -0.693010 -0.274698 0.442324 0.161255 0.442454 -0.479313 -0.074129 -0.204271 -0.336278 -0.119324 -0.216195 -0.062333 -0.213679 -0.103951 0.341212 -0.014300 -0.205803 0.024680 -0.002554 0.139937 0.136250 0.440910 -0.205605 -0.130707 0.332320 -0.150071 0.107329 -0.269874 -0.283293 -0.633253 0.173536 0.010753 -0.122739 -0.199357 0.095364 -0.410944 0.053653 0.225133 0.353586 -0.034443 0.109166 -0.083159 0.262532 -0.199866 -0.787962 0.119544 0.545894 0.029989 0.136206 0.129293 0.372958 -0.548180 -0.228482 -0.199815 -0.201281 0.371141 0.605075 -0.592169 -0.147457 -0.019627 0.070895 0.715074 -0.532722 -1.112061 0.417719 0.030031 -0.291082 -0.080164 -0.638936 0.101771 -0.199323 -0.639973 0.062164 0.237242 0.205076 -0.005299 0.273023 0.542014 0.027142 -0.173584 -0.445986 0.068733 0.461710 0.824391 0.343874 0.784143 0.676282 -0.331097 -0.248057 -0.171356 -0.310757 0.050540 0.700719 -0.055510 -0.486256 
以 -0.172112 -0.367846 -0.215754 0.092350 0.297308 -0.241952 0.047120 1.268037 -0.103763 0.056094 -0.038040 0.015465 -0.023755 0.426093 0.177030 0.117494 0.166402 0.535874 0.284708 0.047229 0.140263 -0.417238 -0.173897 -0.118136 0.012920 0.705360 -0.417285 -0.111108 0.257201 -0.171862 -0.253679 0.192354 -0.333772 -0.485851 -0.012883 0.298754 -0.083804 -0.341212 0.125725 0.125473 0.045995 0.534141 -0.465315 0.163442 -0.117083 -0.575436 -0.179620 0.679198 -0.177830 -0.292958 -0.169967 0.294101 -0.295713 0.164402 0.077384 -0.481528 0.042461 -0.189780 -0.044879 -0.514614 0.199234 0.131337 -0.175293 -0.037574 -0.048110 0.146823 0.076299 -0.301021 -0.063245 -0.622249 0.177133 -0.004134 -0.008308 -0.178643 -0.059545 0.271872 -0.032271 0.175158 0.038774 0.485988 0.109755 -0.081522 0.004403 0.311947 -0.255389 -0.108648 0.350006 0.565245 0.144584 0.442427 -0.397681 -0.082890 -0.046917 0.055006 0.120155 -0.138579 -0.058477 0.398683 -0.160626 -0.359477 
, 0.748616 0.013016 0.003172 -0.718835 -0.870302 -0.674087 -0.123770 1.397828 -0.686355 -0.228156 -0.080326 0.374136 -0.474162 0.433806 0.510189 -0.105713 0.281560 0.263445 0.818276 0.655265 1.114969 0.784119 0.171167 0.378525 0.623188 1.204173 1.068296 -0.145143 -0.757100 -1.020613 -0.740583 -0.036780 -0.274078 -0.382738 -0.295379 -0.097454 -1.561299 -0.232486 -0.293285 -1.493752 0.944783 -0.028154 -2.040147 -0.732284 1.173820 -1.420508 -0.530457 0.890652 0.369446 -0.408569 -0.090744 -0.037397 -0.143449 -0.217096 -0.514126 0.116985 -0.289059 -0.341727 0.445879 0.411771 -0.488339 0.823074 -0.261272 -0.101986 -0.389069 -0.240814 -0.836466 0.568265 -0.013037 0.027053 -0.174378 0.634519 -0.045435 0.322058 -0.428457 0.446060 0.518047 0.589982 -0.075516 0.561867 0.494375 -0.640872 -1.029290 0.328256 -0.091734 0.251485 0.438852 1.728334 -0.461131 0.035681 0.479439 -0.454478 0.793280 -0.124410 -0.040846 0.840459 0.280194 0.776903 0.077469 -0.460018 
- -0.673636 -0.400285 0.298004 -0.361974 0.200912 0.187357 0.234247 1.797856 -0.640307 -0.628490 0.270179 0.765859 -0.433943 0.491608 0.353056 0.426608 0.149198 0.579218 1.311561 -0.121930 0.724908 0.466183 -0.005659 0.268662 0.418946 1.531875 0.176427 -0.068806 -0.686540 -1.416961 -0.307513 -0.288376 -0.004423 -0.697868 -0.274094 0.610812 -0.931495 -0.742271 0.528739 -0.687639 0.725246 0.257854 -1.579742 -0.269827 0.099250 -1.488137 -0.000687 1.129885 -0.394935 0.056370 0.423551 0.434518 -0.568542 -0.307623 -0.368065 -0.191048 0.395686 -0.483473 0.368654 0.142535 0.472413 0.533659 0.332061 -0.046283 -0.420243 0.195144 -0.667038 0.599478 0.265051 -0.114451 -0.104088 0.698444 -0.286318 0.918364 -0.334127 0.384429 0.825306 0.345028 -0.265072 1.034565 0.420050 -0.538140 -0.096527 0.499741 0.187770 -0.016969 0.320052 1.008773 0.106428 -0.298159 -0.830520 -0.926043 -0.069476 0.025060 -0.591462 -0.265275 -0.265505 -0.009964 -0.057580 -0.375959 
来 0.449106 0.027402 -0.412094 0.224212 0.336928 -0.709398 -0.109049 0.435853 -0.025024 0.374723 -0.350400 -0.004891 0.027506 -0.181871 -0.219739 -0.294788 0.083768 0.047515 0.073663 0.199163 -0.069931 -0.216921 -0.069250 -0.092447 0.176763 0.483443 0.127344 0.002883 0.038475 0.354043 -0.039167 0.205627 -0.070976 -0.456993 -0.383057 0.107619 -0.072605 -0.048533 -0.126545 -0.021348 -0.278872 0.275527 0.093107 0.147228 0.006069 -0.483900 -0.104287 0.401000 -0.189770 -0.524918 -0.040140 0.635100 -0.040911 0.060177 0.116682 0.019011 -0.514961 -0.355465 -0.078327 -0.410999 0.085602 0.356334 -0.555107 -0.230777 -0.200606 0.239816 0.644387 -0.600465 -0.820157 -0.106619 0.073130 -0.106587 -0.016681 -0.509296 0.087768 -0.112240 -0.293854 0.264513 0.076983 0.401344 0.137561 0.040076 0.155091 0.009522 -0.275152 -0.116364 0.315848 0.584387 0.612387 0.504980 0.426160 0.503289 -0.309417 -0.176590 -0.009079 -0.239840 0.041232 0.630276 -0.052547 -0.535471 
多 0.466858 0.121746 -0.523007 0.204804 0.422002 -0.559100 -0.038584 0.216357 0.208035 0.206017 -0.508246 0.057192 -0.238570 -0.116653 -0.150201 -0.130945 -0.030330 -0.020524 0.141006 0.299857 -0.111264 -0.404777 0.019151 -0.002023 -0.155771 0.393154 0.180505 0.006208 -0.146712 0.095267 -0.112804 0.264102 -0.226883 -0.285404 -0.481266 0.041060 -0.024157 -0.331217 -0.047254 0.160547 -0.255357 0.005170 0.015619 0.264662 0.015652 -0.208532 -0.094419 0.475645 -0.122741 -0.569138 0.281698 0.570716 -0.094476 0.205761 0.213386 0.133672 -0.243417 -0.207895 -0.322053 -0.238732 0.399958 0.322124 -0.498353 -0.029749 -0.104807 0.046064 0.664121 -0.559037 -0.788472 0.325152 -0.043020 -0.229286 -0.001860 -0.465364 0.218969 -0.230684 -0.497690 0.054773 0.197544 0.308527 0.198823 0.252374 0.494779 -0.150169 -0.095338 -0.014299 0.179205 0.388623 0.734908 0.300210 0.546048 0.367555 -0.241267 -0.380680 0.021680 -0.393376 -0.040115 0.527009 -0.107418 -0.407989 
公司 0.010363 -0.253801 -0.560709 -0.014027 0.325941 -0.150442 0.109137 0.855319 0.241858 -0.052802 -0.145931 0.259051 -0.382189 0.424837 0.201435 0.365835 -0.038813 0.366017 0.512726 0.143091 0.007540 -0.355972 -0.075351 0.017141 -0.314406 0.455880 -0.162956 -0.074181 -0.086645 -0.632300 -0.303053 0.266618 -0.424477 -0.114698 -0.049219 0.272669 -0.170756 -0.618931 0.182885 -0.030224 0.121037 0.020521 -0.868853 0.121101 0.107313 -0.402564 -0.120655 0.927898 0.008691 -0.523748 0.493851 0.341070 -0.057075 0.348995 -0.021865 -0.125396 0.458207 0.034600 -0.302926 -0.168266 0.613120 0.133263 0.088344 0.123653 0.004678 -0.139614 0.085744 -0.059296 -0.013918 0.070322 -0.119826 -0.124641 0.056737 -0.018725 0.037957 0.284851 -0.153833 -0.079373 0.104496 0.280406 0.212154 -0.147180 0.354717 0.082285 -0.143693 0.056099 0.220155 0.511498 0.525800 0.051136 -0.140608 -0.293111 0.223869 -0.316046 -0.002574 -0.025538 -0.022005 -0.007870 -0.286581 -0.318451 
企业 -0.153744 -0.291289 -0.821765 0.136482 0.507929 -0.037613 0.353991 0.768521 0.422284 -0.160259 -0.345470 0.329153 -0.269980 0.448774 0.011065 0.433103 0.116341 0.417604 0.811199 0.048813 -0.014269 -0.690711 -0.174107 0.124395 -0.595942 0.641087 -0.362738 0.136270 -0.038487 -0.790859 -0.229200 0.241015 -0.222954 -0.265189 -0.078912 0.235050 -0.117951 -0.762637 0.429847 0.263468 -0.035782 0.139681 -0.949483 0.119808 0.196463 -0.664496 0.225171 0.958411 -0.099621 -0.387517 0.794910 0.360178 -0.037408 0.414183 0.172477 -0.133883 0.586013 0.001260 -0.425758 -0.386025 0.739111 -0.098766 0.025988 0.357004 0.196910 -0.217663 0.283463 -0.211355 0.014612 0.082160 -0.365632 -0.221167 0.108224 0.010053 0.120083 0.061942 -0.272725 -0.261054 0.131968 0.420142 0.414591 -0.039536 0.470901 -0.362484 -0.137617 0.318311 0.275559 0.302248 0.564818 0.097032 -0.460977 -0.701714 0.088380 -0.418668 0.075215 -0.471539 -0.337616 -0.201239 -0.349681 -0.040533 
又 0.651120 0.215520 -0.237641 0.061096 0.241648 -0.496203 -0.257232 0.574516 0.058358 0.288752 -0.180912 -0.027794 -0.199051 -0.136738 0.012861 -0.146960 0.033837 -0.106954 -0.033617 0.222198 0.096046 0.044858 0.097741 -0.073398 0.186204 0.083783 0.358049 -0.212124 -0.105269 0.132615 -0.287369 0.046759 -0.385165 -0.219938 -0.460513 0.283031 -0.070202 -0.059184 -0.194942 -0.065233 -0.204578 -0.003739 -0.089418 0.234889 -0.025518 -0.018218 -0.311143 0.381913 -0.116839 -0.674765 -0.016532 0.404088 0.023315 0.128829 -0.026600 0.176526 -0.336044 -0.257047 -0.105790 -0.121766 0.315021 0.616378 -0.431940 -0.193096 -0.079892 0.142847 0.422076 -0.309834 -0.779881 0.232353 0.098269 -0.058431 -0.039489 -0.328494 0.019772 -0.050506 -0.396971 0.100679 0.163487 0.216127 -0.152255 0.123746 0.257096 0.191449 -0.180945 -0.429712 0.075211 0.549739 0.687665 0.323637 0.518074 0.579318 -0.190344 -0.201563 -0.238578 0.006909 0.147655 0.601243 -0.084354 -0.529285 
市场 0.004021 -0.229220 -0.680259 0.020785 0.371455 -0.273476 0.194042 0.564424 0.328047 -0.067977 -0.396897 0.171130 -0.164769 0.184312 0.096460 0.187630 0.004669 0.338431 0.573417 0.125953 0.010485 -0.514737 -0.222828 0.221600 -0.318481 0.693529 -0.149331 0.066660 -0.207953 -0.464948 -0.147236 0.347825 -0.077493 -0.391897 -0.217980 0.138234 -0.217257 -0.509237 0.097022 0.134752 -0.024891 0.051824 -0.551410 0.137270 0.153778 -0.544574 0.200180 0.884549 -0.084704 -0.354248 0.666522 0.475360 -0.129845 0.135459 0.205836 0.057510 0.066338 -0.105885 -0.388824 -0.368095 0.480541 0.049629 -0.211043 0.222813 0.197007 -0.148952 0.422960 -0.239558 -0.264455 -0.011043 -0.245807 -0.214678 0.051310 -0.165406 0.037915 -0.074612 -0.232042 -0.089557 0.173940 0.530667 0.369757 0.009131 0.370304 -0.208198 -0.051948 0.221874 0.263327 0.428406 0.389025 0.160474 0.042009 -0.313010 0.054361 -0.383053 0.171581 -0.382276 -0.178704 0.142361 -0.116923 -0.084307 
通过 0.235539 -0.077842 -0.526039 0.138992 0.326362 -0.421008 0.072486 0.809113 0.122999 0.166651 -0.258812 0.125546 0.038286 0.196683 -0.073235 0.025525 0.170075 0.266196 0.407428 0.203672 -0.058229 -0.391722 -0.135079 -0.118003 0.051041 0.424731 -0.067878 -0.038936 0.173280 -0.055345 -0.248709 0.146499 -0.153835 -0.459860 -0.279829 0.245368 -0.145715 -0.342915 0.160935 0.015504 -0.217502 0.261049 -0.403526 0.208221 0.057765 -0.365052 -0.076322 0.601503 0.037738 -0.374206 0.098480 0.324407 0.040623 0.177800 0.067847 -0.105155 -0.027247 -0.151057 -0.141950 -0.252540 0.258361 0.175901 -0.258430 -0.018115 -0.033613 0.133499 0.291621 -0.373061 -0.459332 -0.038413 -0.044699 -0.182503 0.051398 -0.235044 0.149899 0.051272 -0.166753 0.066753 0.086624 0.219432 0.159461 -0.073997 0.263020 -0.013671 -0.317127 -0.046405 0.228703 0.489856 0.600791 0.262894 -0.013974 0.082217 -0.107419 -0.126520 -0.168680 -0.131778 -0.037657 0.209052 -0.138651 -0.350138 
已经 0.422514 0.058522 -0.590850 0.036116 0.378891 -0.381043 -0.001656 0.495445 0.256094 0.065006 -0.499919 0.111219 -0.281899 -0.040226 0.118198 -0.016687 -0.060322 0.052798 0.337273 0.263219 0.025560 -0.251340 -0.017020 0.065046 -0.147314 0.322508 0.126095 -0.032308 -0.245138 -0.177209 -0.179092 0.239284 -0.265623 -0.205632 -0.359850 0.146479 -0.180295 -0.365467 -0.126824 0.090541 -0.090932 -0.163092 -0.298866 0.198522 0.034655 -0.125411 -0.010813 0.614038 -0.146027 -0.544901 0.506859 0.474874 -0.051662 0.218755 0.133165 0.204783 -0.053528 -0.144082 -0.358545 -0.166043 0.538257 0.381645 -0.338513 0.022037 0.086909 0.069623 0.510978 -0.301063 -0.546044 0.293089 -0.070192 -0.185254 -0.019697 -0.282992 0.070713 -0.177053 -0.400841 -0.039503 0.191497 0.276138 0.168223 0.195709 0.461439 -0.142105 -0.148661 -0.106661 0.109912 0.399512 0.684722 0.189548 0.404845 0.254340 -0.076940 -0.409232 -0.052838 -0.243818 -0.006659 0.367707 -0.119867 -0.316812 
很 0.703094 0.299711 -0.448303 0.197029 0.334549 -0.818474 -0.293189 0.234646 0.127610 0.331087 -0.574587 -0.000353 -0.187542 -0.399747 -0.134006 -0.347491 -0.077186 -0.224589 -0.028450 0.377631 0.062036 -0.206291 0.052000 0.158533 0.076834 0.436800 0.521668 -0.116111 -0.234877 0.262535 -0.086496 0.272025 -0.127109 -0.340572 -0.712268 0.012156 -0.131257 -0.167621 -0.312906 0.066735 -0.372765 -0.034659 0.278543 0.281651 0.087206 -0.115583 -0.088139 0.323604 -0.302651 -0.589252 0.184706 0.680256 -0.146003 0.032642 0.224764 0.361648 -0.723477 -0.254232 -0.206894 -0.190526 0.172679 0.532179 -0.712380 -0.113492 -0.161316 0.008665 0.743987 -0.482439 -1.096271 0.415677 -0.033697 -0.211398 -0.064736 -0.620244 0.111755 -0.202140 -0.561367 0.101020 0.333766 0.409894 0.118293 0.293053 0.422815 -0.045717 0.002958 -0.189451 0.187157 0.525252 0.636395 0.322186 0.842534 0.618776 -0.339459 -0.221961 0.005405 -0.434505 -0.036685 0.765611 0.019594 -0.421818 
发展 0.155475 -0.223770 -1.021351 0.186399 0.551972 -0.455261 0.198901 0.720544 0.569923 0.049171 -0.531641 0.307125 -0.399903 0.299130 -0.100059 0.289182 0.044043 0.273790 0.660116 0.328425 0.007778 -0.741703 -0.176008 0.166993 -0.615768 0.630304 -0.126324 0.041236 -0.087975 -0.358171 -0.154185 0.357143 -0.230786 -0.235551 -0.229233 0.094724 -0.004957 -0.678300 0.242349 0.249575 -0.248535 -0.081213 -0.344202 0.277657 0.092184 -0.178600 0.079200 0.842747 0.043677 -0.414256 0.613130 0.437636 -0.165307 0.223200 0.429494 0.035247 0.342000 0.144882 -0.400450 -0.171518 0.530824 -0.168311 -0.082827 0.242168 0.154844 -0.141208 0.448544 -0.258755 -0.203701 0.298602 -0.211020 -0.381844 0.018333 -0.351654 0.297762 0.122187 -0.417931 -0.257479 0.320092 0.392731 0.422941 0.048409 0.679409 -0.164595 -0.032481 0.304188 0.218633 0.317948 0.550671 0.005609 0.069108 -0.418196 0.004804 -0.397316 0.165375 -0.546454 -0.306083 -0.121829 -0.154538 0.067874 
2 0.426825 -0.145980 -0.219426 -0.287998 0.001154 -0.044394 -0.021083 1.306565 -0.072900 -0.015685 0.033490 0.159625 0.132466 0.304335 0.526851 0.039887 0.070127 0.296993 0.688608 -0.041865 0.319770 0.359309 -0.054735 -0.119285 0.267660 0.374284 0.063175 -0.137142 -0.116217 -0.639476 -0.382107 0.129392 -0.172195 -0.327174 0.013966 0.463321 -0.511463 -0.188252 -0.118892 -0.448156 0.355759 0.102032 -1.224742 0.029335 0.143485 -0.543010 -0.433602 0.955063 -0.100659 -0.413400 0.156803 0.202228 -0.051031 0.106363 -0.299429 -0.097591 0.127335 -0.303215 -0.018206 -0.021499 0.240800 0.650316 -0.099027 -0.157579 -0.007334 0.378388 -0.165010 0.214767 -0.027555 -0.162640 -0.025302 0.247674 0.035503 0.313591 -0.266297 0.335468 0.220925 0.168315 -0.005079 0.149521 -0.080242 -0.294759 -0.286573 0.146914 -0.363342 -0.359302 0.178306 0.741252 0.243514 0.108920 -0.278642 0.098678 0.224591 -0.073136 -0.334435 0.472782 0.289263 0.239790 -0.246696 -0.516262 
记者 0.540904 0.168021 -0.178864 -0.105042 0.157877 -0.170905 -0.057267 1.209569 -0.002739 0.205068 -0.016234 -0.014429 0.079966 0.214380 0.274703 0.077203 0.068187 0.105136 0.350283 0.002204 0.276127 0.193715 0.225679 -0.125737 0.400867 0.101143 0.111568 -0.217673 0.081995 -0.283425 -0.284053 -0.005869 -0.357050 -0.207426 -0.302904 0.390785 -0.127556 -0.221641 0.042633 -0.145557 0.005410 0.120032 -0.769015 0.233055 0.108531 -0.104979 -0.381344 0.541787 0.011456 -0.653562 0.029445 0.135914 0.029184 0.238580 -0.098324 -0.127940 -0.000081 -0.190086 0.050339 -0.053494 0.273548 0.620559 -0.195041 -0.275500 -0.039644 0.168380 -0.050945 -0.009704 -0.350483 0.076673 0.053392 0.101590 0.094528 0.020790 -0.111703 0.196647 -0.082157 0.011409 0.042679 0.002152 -0.311210 -0.081305 -0.113256 0.244944 -0.347968 -0.599067 0.038240 0.490337 0.490352 0.103738 -0.013613 0.229567 0.085475 -0.071708 -0.404760 0.280406 0.234046 0.350616 -0.308526 -0.455401 
给 0.507941 0.308782 -0.766655 0.297223 0.371715 -0.932015 -0.201008 0.348542 0.256633 0.544576 -0.537831 -0.244510 -0.345634 -0.335899 -0.424886 -0.167302 -0.148876 -0.183435 -0.158347 0.392797 -0.019096 -0.285607 0.068495 0.182152 -0.137433 0.332020 0.363388 -0.139631 -0.133275 0.373471 -0.034650 0.104602 -0.276969 -0.213271 -0.799391 0.154386 0.142481 -0.305925 -0.175101 0.180028 -0.535259 -0.044651 0.468551 0.704551 0.137212 0.123661 -0.123137 0.464979 -0.047585 -0.762769 0.297368 0.722263 0.036094 0.212677 0.359962 0.265652 -0.575237 -0.062118 -0.437915 0.008051 0.154346 0.252040 -0.759249 -0.134490 -0.052702 0.068083 0.919383 -0.552538 -1.039501 0.497801 0.040634 -0.363695 -0.107031 -0.748676 0.309468 -0.032105 -0.698769 -0.200113 0.218819 0.304901 -0.001371 0.323160 0.687260 0.086255 -0.304008 -0.214817 0.126084 0.395883 0.783873 0.251396 0.684242 0.559408 -0.314769 -0.097844 0.003059 -0.645775 -0.141792 0.652953 -0.089523 -0.333712 
她 1.220100 0.602521 -0.370532 0.185596 0.482794 -0.875481 -0.484462 0.255465 0.032303 0.544953 -0.549933 -0.121560 -0.317144 -0.643498 -0.052016 -0.628061 -0.057008 -0.472003 -0.398022 0.458388 -0.093549 0.094333 0.241890 -0.160954 0.213982 -0.098698 0.613025 -0.206715 -0.111290 0.644270 -0.132166 0.132681 -0.473211 -0.141190 -0.758719 0.110589 0.027425 0.064275 -0.570923 0.061904 -0.394680 -0.202269 0.454632 0.346142 -0.103262 0.324533 -0.404500 0.115485 -0.373217 -0.951903 -0.052126 0.739570 0.037379 0.268324 0.093778 0.496505 -0.749040 -0.399125 -0.191144 -0.116524 0.390768 1.004900 -0.853429 -0.450962 -0.248455 0.274508 0.971261 -0.710756 -1.441089 0.624658 0.184182 -0.182781 -0.053485 -0.793732 0.065489 -0.370171 -0.793299 0.160265 0.254607 0.034741 -0.227078 0.509763 0.549644 0.086791 -0.352545 -0.649233 -0.019454 0.564069 1.137619 0.453543 1.200540 1.312123 -0.513336 -0.297778 -0.237855 -0.237803 0.211906 1.062684 -0.109821 -0.882813 
产品 -0.142696 -0.374220 -0.459484 0.211810 0.339765 -0.182408 0.271429 0.573266 -0.000313 -0.153445 -0.382373 0.137985 -0.251107 0.315931 0.141819 0.248329 -0.216273 0.364573 0.505223 0.017620 -0.065110 -0.527303 -0.119394 0.177089 -0.310457 0.801031 -0.160222 0.226116 -0.204795 -0.603472 -0.112885 0.307297 -0.089460 -0.477746 -0.188225 0.185323 -0.150386 -0.534667 0.173101 0.172467 0.038927 0.232610 -0.605717 0.197094 0.078745 -0.871174 0.155439 0.819896 -0.124419 -0.251243 0.557936 0.457620 -0.304681 0.133958 0.161416 -0.148664 0.193189 -0.161133 -0.314578 -0.469326 0.544905 0.206580 -0.126338 0.150689 0.105079 -0.017580 0.189377 -0.285440 -0.172199 -0.148133 -0.177095 -0.054886 0.096682 -0.088663 0.044351 -0.147685 -0.163674 0.088087 0.075283 0.606966 0.479573 -0.070108 0.245802 -0.157552 -0.155313 0.234848 0.378462 0.493959 0.353169 0.179530 -0.132880 -0.468353 0.159424 -0.431671 0.183755 -0.377346 -0.295121 0.236206 -0.157178 -0.223666 
你 1.136618 0.491563 -0.435783 0.137938 0.307086 -1.003329 -0.686986 0.231965 0.095335 0.612112 -0.544408 0.008428 -0.184499 -0.568246 -0.273542 -0.670841 -0.192905 -0.427294 -0.218728 0.451771 0.192061 0.007726 0.167586 0.220715 0.152219 0.343378 0.793826 -0.283854 -0.196983 0.497026 0.007767 0.311782 -0.117680 -0.189431 -0.967089 -0.015828 -0.071972 0.009910 -0.435004 -0.139731 -0.418634 -0.031989 0.546122 0.214777 0.223902 -0.068961 -0.339809 0.225155 -0.441547 -0.846054 -0.169930 0.762981 -0.031513 -0.042112 0.073580 0.480900 -1.022425 -0.337609 -0.038320 -0.195022 -0.060526 0.820746 -0.787332 -0.367676 -0.380761 -0.148386 0.708872 -0.435858 -1.457356 0.569963 0.045931 -0.190151 -0.058992 -0.882459 -0.000535 -0.054981 -0.597932 0.204092 0.332650 0.466441 -0.098498 0.250590 0.373840 0.162848 -0.059104 -0.356453 0.181230 0.723939 0.581610 0.209795 1.310547 0.897002 -0.408881 -0.015826 -0.036418 -0.353449 0.086321 0.933905 -0.021051 -0.638847 
下 0.430725 0.128654 -0.380953 0.150005 0.326217 -0.446474 -0.026815 0.721147 0.274219 0.199038 -0.334750 0.035876 -0.018306 -0.047845 -0.072368 0.040700 0.112311 0.014647 0.247521 0.150069 0.113582 -0.307703 0.082145 -0.008985 0.090996 0.249187 0.147437 -0.112281 -0.044263 0.009290 -0.206995 0.100553 -0.180642 -0.327108 -0.504345 0.252425 -0.000182 -0.293331 0.056253 0.215412 -0.369422 0.085150 -0.160428 0.358551 -0.023440 -0.011270 -0.127548 0.429773 -0.099756 -0.538889 0.171748 0.341821 -0.085628 0.117113 0.286241 0.094987 -0.198487 -0.106929 -0.146908 -0.204889 0.389148 0.361912 -0.409084 -0.040610 0.032173 0.115164 0.413280 -0.339415 -0.683295 0.260777 -0.077616 -0.220640 0.064949 -0.298614 0.079455 -0.048434 -0.439642 -0.105231 0.292372 0.249182 -0.032303 0.163416 0.398658 0.022025 -0.089279 -0.324903 0.100230 0.354958 0.747326 0.223613 0.222916 0.223895 -0.186589 -0.213831 -0.227930 -0.296925 -0.126688 0.423540 -0.101190 -0.264641 
表示 0.213053 -0.012638 -0.372100 0.046949 0.406246 -0.206555 0.078300 0.758395 0.199638 0.001708 -0.262759 0.181609 -0.392583 0.144433 0.018055 0.146824 0.052892 0.136280 0.408347 0.161918 -0.007461 -0.321093 0.057121 -0.164817 -0.176500 0.383510 0.073286 -0.057179 -0.061514 -0.304374 -0.208012 0.115500 -0.456401 -0.256119 -0.261920 0.295337 -0.035262 -0.505395 0.127311 0.083539 -0.023787 0.012067 -0.504620 0.254252 0.020830 -0.240447 -0.194611 0.638383 -0.079304 -0.535722 0.227003 0.319048 -0.101266 0.272305 0.090792 -0.105303 0.251650 -0.096328 -0.217043 -0.156348 0.554216 0.342911 -0.149109 -0.039321 0.045818 0.119319 0.309457 -0.271117 -0.345725 0.217961 -0.124376 -0.051670 0.001750 -0.170832 0.116072 0.004899 -0.216843 0.046935 0.058731 0.258788 0.132332 0.057356 0.479013 -0.000007 -0.190927 -0.124302 0.112658 0.391644 0.726350 0.150072 0.020432 0.017132 -0.104847 -0.303436 -0.177288 -0.309684 -0.053953 0.162268 -0.298583 -0.336552 
他们 0.853180 0.375763 -0.483999 0.161113 0.430652 -0.732298 -0.266215 0.362250 0.233344 0.389178 -0.485427 -0.031324 -0.173318 -0.292152 -0.100443 -0.311647 -0.016743 -0.221327 -0.064019 0.429853 -0.044459 -0.148680 0.087313 -0.044539 0.070226 0.133200 0.418523 -0.142516 -0.077742 0.306279 -0.153493 0.152148 -0.310290 -0.247516 -0.737256 0.113137 -0.033490 -0.194615 -0.272893 0.070889 -0.379548 -0.080874 0.184386 0.335186 0.024139 0.158273 -0.214402 0.325756 -0.199273 -0.680685 0.134106 0.548997 0.009185 0.159315 0.127798 0.308948 -0.538354 -0.239547 -0.186627 -0.125845 0.309470 0.615054 -0.605370 -0.223244 -0.149835 0.015863 0.725174 -0.547298 -1.109735 0.549592 0.015643 -0.225729 -0.005945 -0.639465 0.108767 -0.204899 -0.568718 0.028549 0.292455 0.179799 -0.080567 0.325480 0.579650 0.000927 -0.191154 -0.345597 0.043345 0.489889 0.820271 0.264320 0.778678 0.768403 -0.359357 -0.223806 -0.170823 -0.281577 0.048583 0.697654 -0.127167 -0.551398 
能 0.448741 0.119163 -0.496589 0.177719 0.373943 -0.636078 -0.137444 0.440606 0.186163 0.256918 -0.461674 0.078715 -0.143208 -0.182956 -0.179806 -0.225445 0.047532 0.008376 0.170710 0.282376 0.063708 -0.313507 -0.048955 0.142505 0.068129 0.526673 0.258918 -0.116716 -0.168741 0.128110 -0.110122 0.179477 -0.082616 -0.340498 -0.602737 0.089821 -0.109349 -0.238275 -0.063083 0.084335 -0.344431 0.086912 0.088553 0.212594 0.036613 -0.268959 0.040100 0.425347 -0.205412 -0.530800 0.219246 0.556653 -0.075369 0.024346 0.186195 0.217677 -0.479319 -0.244524 -0.172753 -0.233008 0.217521 0.290333 -0.516393 -0.033381 -0.122204 0.021943 0.590285 -0.403815 -0.844532 0.229281 0.018202 -0.191060 -0.069147 -0.460287 0.102924 -0.142031 -0.420660 0.066372 0.233784 0.448721 0.132596 0.208356 0.425923 0.015228 -0.048388 -0.091500 0.211944 0.462814 0.526796 0.279259 0.545328 0.327696 -0.314361 -0.206213 -0.017141 -0.432060 -0.097603 0.568013 -0.000530 -0.323227 
于 0.382230 -0.143888 -0.383512 -0.314623 0.187809 -0.038345 0.100107 1.298419 0.147738 -0.126071 -0.129935 0.268807 -0.082271 0.409013 0.535934 0.230089 0.085609 0.408749 0.851142 0.144573 0.297414 0.090116 0.025475 -0.088362 0.084508 0.345706 -0.045239 -0.085601 -0.217498 -0.703935 -0.378534 0.118348 -0.335781 -0.236967 0.059279 0.386073 -0.475923 -0.421473 -0.030428 -0.296703 0.348422 -0.173837 -1.225353 0.061238 0.110288 -0.301821 -0.347801 1.009928 0.026334 -0.362686 0.374979 0.132121 -0.127397 0.210824 -0.169831 -0.136382 0.435401 -0.150580 -0.165949 0.052224 0.480193 0.437298 0.067231 -0.027175 0.019505 0.319195 -0.086243 0.155883 0.088601 0.061136 -0.139697 0.128338 0.025427 0.289151 -0.104824 0.242053 0.109467 -0.051713 0.074425 0.193548 -0.001287 -0.197136 0.048439 0.068257 -0.147400 -0.207771 0.107589 0.571170 0.441443 0.004998 -0.226876 0.010916 0.200915 -0.241299 -0.312460 0.292776 0.213322 0.087228 -0.217588 -0.349236 
向 0.182072 0.053101 -0.371231 0.022216 0.294925 -0.239511 -0.034483 1.307293 0.122367 0.496012 0.188780 -0.189735 0.075547 0.307715 -0.016002 0.157439 0.083570 0.205229 -0.026519 -0.028641 0.132511 -0.198913 -0.017802 0.010624 0.337233 0.159348 -0.024279 -0.324764 0.361743 -0.033381 -0.344063 -0.102189 -0.444436 -0.171592 -0.551908 0.425538 0.244729 -0.272843 0.329702 0.124222 -0.428813 0.627683 -0.229662 0.536155 -0.178182 0.125837 -0.182569 0.427766 0.120671 -0.680624 -0.139860 0.101402 0.056960 0.242093 -0.029277 -0.218055 -0.053473 -0.062900 -0.101935 -0.423321 0.189131 0.416735 -0.249835 -0.128409 0.114618 -0.333211 0.143190 -0.194627 -0.475135 -0.159707 0.100520 -0.164663 0.053782 -0.254541 -0.046763 0.309066 -0.222257 -0.288651 0.078766 0.342801 -0.518232 -0.001377 0.302387 0.542544 -0.443976 -0.545308 0.084233 0.488619 0.455062 0.105963 -0.184324 0.012178 -0.055633 0.199593 -0.312524 -0.016015 -0.095950 0.254028 -0.353920 -0.382063 
着 0.843060 0.415955 -0.310736 0.087041 0.356011 -0.591089 -0.216769 0.448636 0.183165 0.311384 -0.427716 -0.064396 -0.223546 -0.369129 -0.063107 -0.271063 0.046953 -0.275955 -0.020319 0.308714 -0.019103 -0.093706 0.262040 -0.126069 0.119757 0.091146 0.434055 -0.184428 -0.097922 0.250055 -0.217416 0.120333 -0.398922 -0.201095 -0.687483 0.215102 -0.053198 -0.168286 -0.280049 0.119992 -0.332805 -0.157238 0.086349 0.392283 -0.010590 0.188479 -0.338675 0.254630 -0.244183 -0.696275 0.131300 0.530517 -0.025864 0.276507 0.180572 0.221846 -0.467219 -0.284729 -0.238311 -0.067385 0.410711 0.701447 -0.689825 -0.260604 -0.123112 0.257077 0.665566 -0.495441 -1.049408 0.498004 -0.048374 -0.125517 0.072729 -0.440694 0.141295 -0.240717 -0.605143 0.029704 0.267261 0.121864 -0.151956 0.405252 0.422736 -0.000600 -0.251224 -0.469369 0.024140 0.462651 0.980741 0.324464 0.721509 0.825953 -0.347409 -0.297663 -0.302012 -0.279499 0.125682 0.757470 -0.195196 -0.582160 
目前 0.164376 -0.144793 -0.451673 -0.048839 0.248236 -0.215215 0.000384 1.046684 0.156647 0.115003 -0.125310 0.116571 -0.052347 0.278927 0.154818 0.131054 0.055510 0.243097 0.434854 -0.008726 0.246277 -0.201438 -0.102770 0.101541 0.048602 0.455003 -0.029972 -0.130836 -0.030335 -0.404502 -0.262715 0.174835 -0.143825 -0.319191 -0.297513 0.348249 -0.156994 -0.326989 0.141892 -0.029312 -0.095686 0.209839 -0.623895 0.172054 0.102897 -0.412132 -0.022951 0.661191 -0.053803 -0.475826 0.206812 0.268758 -0.048055 0.076816 0.034135 0.020340 -0.030995 -0.113829 -0.058103 -0.311832 0.311755 0.288054 -0.162752 0.026246 0.096143 -0.043354 0.034837 -0.065739 -0.294807 -0.104487 -0.047081 -0.103130 0.039864 -0.104352 -0.090494 0.176912 -0.157816 -0.022920 0.159499 0.363805 0.024795 -0.077795 0.105017 0.126515 -0.184359 -0.130119 0.207262 0.526776 0.313041 0.124536 -0.059982 -0.220456 0.057071 -0.199891 -0.111407 -0.083246 -0.091842 0.173269 -0.173935 -0.192174 
  0.710613 0.170170 -0.449500 -0.595902 -0.198328 0.189859 -0.939733 1.952505 0.076427 0.543092 -0.307640 -0.251929 -0.739810 1.072305 0.924998 0.713997 -0.972889 0.886951 0.879089 0.160039 0.294019 0.539282 0.294170 -0.469128 0.887946 -0.377802 -0.635636 -0.140181 -0.696550 -0.912367 0.273396 -0.078998 -1.541067 -0.091848 0.986815 0.316809 -0.142188 -0.037354 0.082306 -1.038468 1.497815 -0.777707 -1.963816 -0.196100 0.401437 -0.406363 -0.205531 1.651030 0.106373 -1.739846 1.110801 -0.160825 0.629225 0.939182 -1.282877 -0.436056 1.088911 -0.146925 0.193394 0.580050 0.736911 0.526276 0.788756 -0.452566 -0.364306 -0.344815 -0.680465 0.020424 -0.030809 0.017942 0.521426 0.107969 -0.933450 -0.694173 -0.978301 0.444119 0.187775 0.568246 0.310113 -0.641154 0.021846 -0.181624 -0.018766 -0.155849 0.109069 -0.769335 -0.345836 0.335345 0.041744 0.279487 0.722622 0.182706 1.110336 -0.973835 -0.219098 1.283289 1.464965 0.447170 -1.094770 -0.882093 
个 0.249828 -0.096007 -0.389438 -0.084190 0.111488 -0.058748 0.153651 1.135409 0.054530 0.080709 -0.163646 0.101221 -0.105752 0.399435 0.336471 0.182707 -0.063995 0.265880 0.678699 0.075401 0.108611 -0.086826 -0.064455 -0.196480 0.051988 0.259101 -0.023738 0.005227 -0.030608 -0.604552 -0.288430 0.103421 -0.255293 -0.384529 -0.023889 0.302919 -0.259026 -0.346843 0.095905 -0.132025 0.227456 0.109760 -0.965565 0.116003 0.046284 -0.306987 -0.118897 0.902075 0.020087 -0.338083 0.355837 0.135996 -0.015153 0.268120 -0.232344 -0.086404 0.309941 -0.259307 -0.168139 -0.119005 0.522701 0.546460 -0.060557 -0.063608 0.022222 0.191610 -0.113104 -0.094692 -0.065837 -0.098796 -0.091004 0.030793 -0.082149 0.054928 -0.097140 0.131975 0.011305 -0.035128 0.008079 0.059078 0.041152 -0.091939 0.137262 -0.086770 -0.338664 -0.327375 0.162842 0.551475 0.438000 0.079863 -0.213153 0.060452 0.215637 -0.233914 -0.302288 0.295025 0.064737 0.132192 -0.316063 -0.377662 
车型 -0.254025 -0.317574 -0.315703 -0.352042 0.053117 -0.383102 0.079380 0.649647 -0.029863 -0.307716 -0.543681 0.197893 -0.009538 0.168894 0.388156 -0.040076 0.022780 0.616514 0.839955 -0.070241 0.563402 -0.128916 -0.079357 0.543845 0.203972 1.168199 -0.088273 0.086060 -0.692553 -0.707332 -0.260699 0.243776 0.174897 -0.634175 -0.249756 0.208196 -0.613327 -0.482121 -0.282129 -0.207248 0.321156 -0.069396 -0.861148 -0.135858 0.320341 -1.134725 0.253545 1.001902 -0.182675 -0.096453 0.633136 0.434658 -0.478370 -0.321683 0.136878 0.019278 -0.489766 -0.285163 -0.204152 -0.348156 -0.086355 -0.021521 -0.402867 0.137993 0.053837 0.075360 0.019582 0.113989 -0.086969 -0.403765 -0.247311 0.130727 0.054952 0.110760 -0.135502 -0.107680 0.229798 0.217608 0.296226 1.058097 0.437690 -0.039454 -0.280266 -0.008318 0.303158 0.316147 0.463023 0.613531 -0.200855 0.242710 0.035082 -0.282879 0.245540 -0.541450 0.307884 -0.184969 0.040065 0.683032 -0.019988 0.045803 
或 -0.111441 -0.243695 -0.437252 0.028851 0.213922 -0.364699 0.010572 1.290346 0.027800 0.378531 0.135614 0.003801 0.009831 0.463523 -0.067137 0.152237 -0.005210 0.324915 0.180412 -0.010692 0.211367 -0.406151 -0.246741 0.065290 0.122992 0.463906 -0.339223 -0.296116 0.320621 -0.252577 -0.319366 -0.041977 -0.263079 -0.421292 -0.312043 0.428043 -0.020731 -0.426343 0.366859 -0.022654 -0.278276 0.699448 -0.374638 0.178071 -0.081738 -0.276927 0.112112 0.475404 -0.015051 -0.421374 -0.070631 0.057254 -0.049175 0.136828 -0.116143 -0.170078 0.017115 -0.137983 0.030822 -0.514038 0.134918 0.251136 -0.108834 -0.035707 -0.020184 -0.181257 -0.096526 -0.177927 -0.215676 -0.497340 0.119084 -0.117143 -0.029126 -0.132921 0.069931 0.465598 -0.179927 -0.107417 0.081706 0.423746 -0.209596 -0.110871 0.107572 0.446714 -0.308917 -0.158870 0.369973 0.652133 0.156643 0.246178 -0.448105 -0.233534 -0.038578 0.064215 -0.118681 -0.048019 -0.170072 0.198255 -0.275353 -0.222273 
4 0.343802 -0.145215 -0.037463 -0.465234 -0.036727 0.218609 0.153361 1.603718 -0.124510 -0.192331 0.126034 0.223082 0.040426 0.524970 0.719836 0.306987 0.082553 0.410760 0.951862 -0.101241 0.387971 0.400005 0.134315 -0.249509 0.323841 0.273179 0.035739 -0.129809 -0.172939 -0.944016 -0.544299 -0.030781 -0.378363 -0.348149 0.171708 0.631801 -0.535351 -0.370015 -0.013135 -0.479211 0.567788 0.033597 -1.670727 0.110246 0.122093 -0.491689 -0.606861 1.102958 0.067501 -0.407171 0.213960 -0.004781 -0.085733 0.188019 -0.373024 -0.311255 0.533569 -0.247145 -0.024104 0.128343 0.516888 0.765136 0.098463 -0.207898 0.060249 0.483666 -0.464357 0.361971 0.235817 -0.082722 -0.133706 0.391898 0.080149 0.592045 -0.273897 0.317944 0.354564 0.154711 -0.081458 0.127007 -0.139402 -0.356753 -0.301540 0.184903 -0.404831 -0.504411 0.067556 0.770990 0.461864 -0.004929 -0.500465 0.000198 0.399651 -0.142678 -0.558692 0.650585 0.353970 0.179523 -0.334635 -0.551987 
设计 0.000750 -0.240145 -0.494127 0.094689 0.289174 -0.534017 0.062844 0.565975 0.094344 -0.116903 -0.552541 0.135815 -0.127193 0.156958 0.054618 0.061067 -0.050846 0.453565 0.520237 0.169722 0.329069 -0.482683 -0.089682 0.337660 0.011823 1.002867 0.046046 0.072561 -0.401403 -0.413340 -0.155039 0.243962 -0.041763 -0.495263 -0.405776 0.095324 -0.371269 -0.483616 -0.028183 0.064721 -0.210640 0.032850 -0.289477 0.110532 0.103449 -0.663953 0.239726 0.726362 -0.103308 -0.216826 0.507789 0.492889 -0.495742 -0.072432 0.344232 -0.050804 -0.321414 -0.171332 -0.240592 -0.303920 0.150575 0.001057 -0.289177 0.223380 -0.105003 -0.021509 0.373127 -0.167483 -0.307799 -0.055203 -0.185440 -0.118248 0.010717 -0.155772 0.087787 -0.018338 -0.224266 -0.041369 0.395564 0.849677 0.342723 0.073162 0.287661 -0.032734 0.255570 0.307382 0.447037 0.499038 0.250866 0.211586 0.106054 -0.201436 -0.055285 -0.273142 0.280683 -0.435824 -0.212766 0.476681 0.092328 -0.025896 
10 0.182441 -0.182269 0.010188 -0.264586 0.029316 0.208144 0.324544 1.600440 -0.113254 -0.097104 0.118483 0.041440 0.187210 0.592072 0.525247 0.373767 0.069290 0.401130 0.774690 -0.270545 0.504124 0.366258 0.231639 -0.372146 0.450399 0.124024 -0.135610 -0.079957 -0.049355 -0.785299 -0.570060 -0.097157 -0.364817 -0.383381 -0.027473 0.519394 -0.265130 -0.506815 0.123647 -0.194069 0.374702 0.106599 -1.475607 0.293885 -0.132979 -0.259456 -0.510443 0.969826 0.168356 -0.423120 0.162170 -0.032398 -0.217588 0.278918 -0.243662 -0.392972 0.510736 -0.303354 -0.043589 0.036925 0.558219 0.728538 -0.112286 -0.257110 -0.142602 0.568305 -0.461788 0.145812 0.231672 -0.134927 0.015113 0.415444 0.028276 0.566074 -0.097312 0.247576 0.243876 -0.130877 -0.078971 0.009587 -0.262557 -0.161951 -0.230118 0.172144 -0.334091 -0.615791 0.073508 0.493787 0.556516 0.034219 -0.833103 0.128554 0.211137 -0.176685 -0.610294 0.569768 0.162982 0.208815 -0.340197 -0.487683 
现在 0.660510 0.165175 -0.463358 -0.010972 0.352035 -0.615738 -0.282392 0.506183 0.107897 0.289299 -0.460452 0.153541 -0.233969 -0.289690 0.066696 -0.279873 0.018327 -0.091251 0.145219 0.358977 0.080289 -0.039380 -0.063686 0.127672 0.018601 0.363532 0.359630 -0.103189 -0.277010 0.054439 -0.105189 0.190665 -0.148792 -0.175726 -0.394708 0.100699 -0.208000 -0.033008 -0.275893 -0.079234 -0.108666 -0.115436 -0.048079 0.094733 0.116116 -0.195870 -0.115012 0.401955 -0.278707 -0.606558 0.208373 0.605698 -0.016331 0.019363 0.014597 0.424319 -0.406388 -0.273834 -0.192720 -0.145821 0.282243 0.499064 -0.427595 -0.107540 -0.056917 0.104100 0.605996 -0.283841 -0.851407 0.332595 0.019470 -0.118890 -0.086283 -0.405013 -0.026190 -0.144058 -0.384857 0.184633 0.201243 0.302208 0.125782 0.162915 0.266371 -0.004464 -0.092290 -0.134285 0.101528 0.463828 0.525565 0.288425 0.713811 0.471960 -0.241468 -0.268085 -0.024609 -0.216273 0.081627 0.580515 -0.027266 -0.424361 
. 0.942610 -0.056721 -0.233454 -0.965309 -0.399689 -0.172407 -0.893826 2.352141 -0.344280 -0.042870 -0.010594 1.009220 0.185291 0.053048 0.865034 -0.317323 0.525845 0.384492 1.701855 -0.026988 1.342105 1.056236 -0.424942 0.638956 0.927042 1.599288 0.894333 -0.468019 -0.877502 -1.329629 -0.456902 0.006131 0.660478 -0.385630 0.185829 0.760499 -1.440487 0.464420 -0.295556 -1.525663 0.733991 0.080510 -2.083385 -0.850388 0.894318 -1.864751 -0.488905 1.417140 -0.694488 -0.529317 -0.273639 0.455960 0.156268 -0.884688 -0.809654 0.702040 -0.608299 -0.662831 0.784292 0.066709 -0.460950 0.750492 0.170505 -0.011459 0.174278 0.358333 -0.430563 1.226567 -0.300082 -0.071993 -0.269772 0.580422 -0.266885 0.617688 -1.186841 0.778337 0.659943 0.918855 0.196288 1.094410 0.475929 -0.969594 -1.180991 0.495007 0.201914 0.005067 0.480750 1.398534 -0.667611 0.247764 0.020875 -0.784350 0.272927 0.090859 -0.298040 0.648123 0.368972 0.456011 0.179526 -0.250120 
孩子 0.722962 0.007388 -0.370689 0.862811 0.444240 -1.675424 -0.304585 0.298514 -0.673680 1.003039 -0.636641 -0.165248 0.555789 -0.886050 -0.827024 -1.386988 0.766094 0.306485 -0.290623 0.172887 -0.733185 -0.496906 -0.748111 -0.648907 1.053980 0.962363 -0.134386 0.284439 0.652442 1.883981 0.265448 0.163880 0.438750 -1.549992 -0.057730 0.074017 -0.250297 0.854497 -0.296486 -0.178784 -0.593731 1.506286 0.923245 -0.264269 -0.160584 -1.781378 0.244951 -0.033783 -0.732909 -0.662123 -1.021716 1.364228 0.229491 -0.135907 0.019112 -0.166802 -1.810806 -1.312418 0.386073 -1.466520 -0.457304 0.500584 -1.516432 -0.577263 -0.472464 1.398062 1.815767 -1.811349 -2.088121 -1.368689 0.695565 0.020609 -0.359257 -1.219451 0.075910 -0.752215 -0.254944 1.583030 -0.364780 0.453647 0.701023 -0.021513 -0.428004 -0.208973 -0.978319 -0.086671 0.879520 1.211037 0.850330 2.196713 0.674593 1.675816 -1.250674 -0.375247 0.096940 -0.540884 0.522635 1.527500 0.172787 -1.425675 
